#ifndef WEIGHTS_H
#define WEIGHTS_H

float conv_kernel[25] = {-0.14794451, 0.14592226, 0.24548472, -0.11650709, -0.18018085, -0.15571718, 0.3973464, 0.32900485, -0.16501899, -0.33231002, -0.057097185, 0.15364261, 0.2620649, 0.24951358, 0.13850108, 0.32412735, 0.23657195, 0.15375595, -0.066931784, 0.26082787, -0.22837463, -0.3012095, -0.14456904, -0.0754244, -0.12319298};

float fc_bias[10] = {-0.28958258, 0.59406364, 0.16156672, -0.28187707, 0.11533738, 0.71591485, -0.08040243, 0.4489927, -0.9534901, -0.16866192};

float fc_weight[10][784] = {
  {0.026830912, -0.017624933, -0.024374086, 0.0074502584, -0.065636516, -0.18962753, -0.07015708, -0.07505122, -0.16980772, 0.16492312, 0.034237843, -0.18647726, -0.18708593, -0.014809179, -0.24846877, -0.23545644, -0.10357845, -0.099990234, -0.17320104, -0.29340956, -0.3487259, -0.3253842, -0.30412382, -0.179791, -0.078691415, -0.07192656, -0.10234439, -0.027222192, 0.0003557407, -0.02438009, -0.2536084, -0.0012722659, -0.44136187, -0.06596845, -0.295464, -0.30933568, -0.10082465, 0.07283704, -0.12766553, -0.088104054, -0.014444866, -0.13802162, -0.07833596, -0.11848301, -0.09000814, -0.15842608, -0.2595157, -0.29233742, -0.4213041, -0.24456336, -0.2113829, -0.25873598, -0.3471996, -0.19973339, -0.42650786, 0.0003593963, 0.015775621, 0.07747384, 0.10790316, 0.018868597, -0.1532108, -0.21261218, -0.14577457, -0.4913354, -0.3217313, -0.43399018, -0.3502354, -0.059199147, -0.14845002, -0.08997098, -0.24941193, -0.41927245, -0.23727238, -0.115103155, -0.18885402, -0.2854092, -0.41473395, -0.22400138, -0.15815917, -0.09255926, -0.09420757, -0.032925352, -0.1170748, -0.13185176, -0.021884883, 0.15689366, 0.0015303621, -0.037059035, -0.13310817, -0.7017488, -0.37978348, -0.3964101, -0.43898103, -0.32660845, -0.108711995, -0.00093187625, -0.0090696355, -0.10022707, -0.2142509, -0.12221537, -0.052725274, -0.0014196001, -0.12503469, -0.1520391, -0.15512455, -0.23321308, -0.23389162, -0.19714743, -0.13057794, -0.20094523, -0.26099944, -0.28122336, -0.49415788, -0.21948007, -0.4755017, -0.22128554, -0.1305733, -0.4833042, -0.48425123, -0.39041328, -0.1578358, -0.09153228, -0.0777628, -0.08794909, -0.13294828, -0.14663158, -0.14761797, -0.20587055, -0.14790745, -0.11224295, -0.05709685, -0.086077064, -0.11893756, -0.19853729, -0.2663663, -0.22113365, -0.23508555, -0.2868126, -0.24486355, -0.655056, -0.5745907, -0.5547955, -0.43126404, 0.13648361, 0.07124166, -0.41390523, -0.3578941, -0.26141334, -0.091509216, -0.13132061, -0.13895856, -0.13841861, -0.15806964, -0.026915677, -0.021875845, -0.03552396, 0.0028675208, -0.04953038, -0.060990427, -0.0049152058, -0.024399329, -0.04087273, -0.04953811, -0.09605858, -0.296197, -0.4725975, -0.72796625, -1.0384005, -0.21642335, -0.41312215, -0.3424181, 0.14260182, -0.32868037, -0.07885251, -0.37650192, -0.07959795, -0.1993165, -0.2429366, -0.17117138, -0.050692473, -0.11402428, 0.008537903, 0.113897584, 0.0781111, 0.0005512849, 0.034688316, 0.1116794, 0.05844346, 0.023506403, 0.095162444, 0.031329703, -0.11084281, -0.35919446, -0.54584265, -0.6265832, -0.84662807, 0.14145695, 0.02508843, -0.1471261, -0.49369103, -0.48907214, -0.41201854, -0.036043163, -0.018942356, -0.17479493, -0.20726559, -0.039329145, -0.07110702, -0.06022809, 0.03608781, 0.06396474, 0.020975903, 0.04434424, 0.113533385, 0.15200363, 0.038243838, -0.001919504, 0.10051623, 0.14672078, 0.012907822, -0.20868601, -0.507352, -0.85515213, -1.1111664, 0.074635714, 0.10293788, -0.5152308, -0.46215326, -0.62895554, -0.48208132, -0.021368988, -0.078486994, -0.12470733, -0.16775364, -0.041741833, -0.038147397, -0.016192302, 0.057858013, 0.088536106, 0.1209853, 0.18962237, 0.25677758, 0.21452683, 0.10111634, 0.05206419, 0.052653383, 0.0011275541, 0.07189904, -0.014840601, -0.3258463, -0.7350954, -0.9509803, 0.14059024, -0.02824253, -0.04112556, 0.1964321, -0.32239893, -0.31744212, -0.10430295, -0.114773385, -0.17067029, -0.06375211, -0.0862612, -0.0597033, -0.035655446, 0.08690994, 0.045357972, 0.0880367, 0.24121487, 0.33444074, 0.34731215, 0.19768149, 0.050194524, -0.0057686064, -0.049370494, 0.14063103, 0.19735195, -0.24212813, -0.6544298, -0.9297683, 0.078361295, 0.15218888, -0.0331896, -0.06215483, -0.20678818, -0.18949655, -0.14638183, -0.17627306, -0.16608314, -0.10640663, -0.11125594, -0.104590856, -0.08241831, 0.08755413, 0.08783177, 0.012056988, 0.045086972, 0.15973233, 0.19902866, 0.15752514, 0.08726726, 0.07096798, 0.02327207, 0.10663471, 0.09133226, -0.24822105, -0.6087692, -0.91779995, 0.09687702, 0.027759701, -0.22242689, -0.03470959, -0.11912749, -0.17603062, -0.052222446, -0.11218102, -0.09564286, -0.13311532, -0.0768317, -0.060557168, 0.005282229, 0.09198941, -0.038812548, -0.2945221, -0.38028812, -0.14933625, 0.08680469, 0.044151675, 0.07060119, 0.048456416, 0.08924003, 0.18485785, 0.20914355, -0.08867134, -0.41929546, -0.91664994, 0.016201157, -0.05746995, -0.29403374, 0.2305817, -0.14937708, -0.23568863, -0.0938424, -0.07034352, -0.0829995, -0.08265322, -0.055407703, -0.06869759, 0.06674032, 0.022587843, -0.32026455, -0.6083268, -0.6281974, -0.43892747, 0.0020458826, -0.052287787, -0.0658859, -0.014079945, 0.1087691, 0.21466973, 0.21059169, 0.013567922, -0.23938373, -0.6138842, 0.18514287, -0.15388347, -0.021663312, 0.00499559, -0.12151076, -0.16585474, 0.04992468, 0.008234341, 0.031408217, 0.01998693, -0.0012316538, -0.010335404, 0.10602475, 0.015228589, -0.42457917, -0.7101432, -0.7707101, -0.3800239, 0.0062992424, -0.06657647, -0.13572827, -0.087993294, 0.101383746, 0.25514215, 0.30256853, 0.14287004, -0.103369, -0.5052359, -0.26931933, -0.62176555, 0.13202493, -0.13394752, -0.2437028, 0.04572311, 0.17711477, 0.1277243, 0.14827314, 0.097004935, 0.02914154, 0.012926199, 0.20531096, -0.057918005, -0.6110462, -0.77352214, -0.77922416, -0.43796217, -0.09464018, -0.12167393, -0.2030016, -0.03486191, 0.16211197, 0.28138298, 0.2907818, 0.123837955, -0.039522983, -0.22919679, -0.12725925, -0.56216234, -0.16583568, -0.33270845, -0.2497611, 0.04487701, 0.16455312, 0.13009605, 0.18812482, 0.1628775, 0.01420289, 0.06345391, 0.13399416, -0.22359014, -0.7536064, -0.82695097, -0.8293824, -0.4512554, -0.15399452, -0.088072985, -0.05757952, 0.10156722, 0.1762753, 0.25345555, 0.28679618, 0.06795095, -0.08547956, -0.19294299, -0.12524463, -0.31780744, -0.41541523, -0.4128141, -0.067206345, 0.15463744, 0.13822435, 0.1595745, 0.18532819, 0.14951089, 0.06555417, 0.1291492, 0.098489314, -0.4464595, -0.7833066, -0.73324054, -0.5464024, -0.27761066, -0.010292755, 0.05450881, 0.04462849, 0.12486635, 0.07062196, 0.16769384, 0.17370388, -0.025820924, -0.17689474, -0.21395126, -0.19092953, -0.67616487, -0.3758533, -0.7393793, -0.114921816, 0.17249495, 0.14251511, 0.094835706, 0.17873216, 0.20139468, 0.24927284, 0.21722822, -0.013362201, -0.532797, -0.689879, -0.5640616, -0.30032542, -0.089611344, 0.079253264, 0.09463522, 0.14226802, 0.08101963, 0.05685393, 0.14853624, 0.008503335, -0.18819189, -0.25585794, -0.24266113, -0.41691318, -0.98086244, -0.675032, -0.7684425, -0.34490874, 0.056756254, 0.14183994, 0.11038492, 0.13272242, 0.20126425, 0.24999398, 0.25630876, -0.014327589, -0.4018493, -0.5830808, -0.47399202, -0.15563267, 0.04495713, 0.075115964, 0.104550056, 0.11167811, 0.09858912, 0.05911421, 0.0540272, 0.014229154, -0.10912587, -0.17934714, -0.21653731, -0.39249766, -0.5936567, -0.23555307, -0.610257, -0.46834737, 0.0042202016, 0.023980524, 0.059007198, 0.08706429, 0.18817553, 0.28471974, 0.3402612, 0.1788483, -0.16670083, -0.35409403, -0.24767931, -0.055133305, 0.092836715, 0.10003892, 0.063851975, 0.092174634, -0.0006375043, 0.059003755, 0.05173791, 0.03639808, -0.07481071, -0.17688715, -0.20245552, 0.10282432, -0.17822495, -0.25218162, -0.39819318, -0.43955907, -0.08961063, -0.057168737, -0.01039044, 0.08788668, 0.061019763, 0.14365083, 0.27381235, 0.17138161, 0.021165134, -0.18239129, -0.11592204, -0.03572127, -0.02462125, 0.012488122, 0.015510106, -0.099822685, -0.054904632, 0.11811496, 0.11568627, -0.00033530814, -0.1556785, -0.13338807, -0.030973634, 0.04531138, -0.3271573, -0.41889352, -0.3749934, -0.3382966, -0.0180398, -0.008698849, -0.03599473, 0.023538612, 0.08709333, 0.11199299, 0.21186553, 0.14959759, 0.080517724, -0.015915701, 0.013525194, 0.020504734, 0.028866963, 0.07112348, -0.0036447756, -0.027492167, 0.045961283, 0.13002476, 0.044621203, -0.047619443, -0.22777368, -0.06456174, 0.009644223, -0.17774576, -0.44407067, -0.81282586, -0.42661873, -0.51566976, -0.1154562, -0.06584281, -0.010523615, 0.022040462, 0.15031254, 0.17366903, 0.30903083, 0.34941906, 0.24078436, 0.14283192, 0.13066871, 0.09901306, 0.034595408, 0.034464248, -0.065545164, -0.032760292, 0.024460522, 0.10932898, -0.0056481813, -0.19191173, -0.28739262, -0.07126565, 0.03925722, -0.26024747, -0.17167333, -0.08261935, -0.3843792, -0.38151836, -0.24169302, -0.050458636, -0.08676558, -0.05480183, 0.09161952, 0.2367083, 0.22864272, 0.2861045, 0.25017834, 0.15563238, 0.11029739, 0.08300578, 0.0650144, 0.010155034, -0.07507843, -0.09427299, -0.050115358, 0.0667014, -0.068773165, -0.34701672, -0.3714753, -0.13096794, -0.059880823, -0.19217922, -0.32846135, -0.16903454, -0.17736298, -0.1394891, -0.26064917, -0.28750813, -0.21835956, -0.05968561, -0.0429185, 0.010809395, 0.13155656, 0.18887645, 0.14661388, 0.013787893, -0.04211636, -0.15322916, -0.0943577, -0.30126148, -0.45427188, -0.55426854, -0.4444952, -0.25695112, -0.2924814, -0.45497635, -0.4626726, -0.29046312, -0.20108645, -0.1779554, -0.14291085, -0.031932753, -0.16680254, -0.45292905, -0.17512019, -0.427196, -0.43628618, -0.48729756, -0.3730775, -0.33825743, -0.2845134, -0.2886877, -0.26690584, -0.3369781, -0.31219923, -0.47161362, -0.47077066, -0.44867444, -0.5096636, -0.5845377, -0.51501584, -0.56643605, -0.39135537, -0.39110425, -0.2671003, -0.14533852, -0.172083, -0.02183093, -0.050364953, -0.24316654, -0.09051135, -0.14058362, -0.15387249, -0.680737, -0.4928738, -0.47514412, -0.53965974, -0.75930953, -0.9159148, -0.8816925, -0.74587286, -0.7221181, -0.86473453, -1.1626952, -0.97522783, -0.97594726, -0.8762638, -0.7480553, -0.6354452, -0.45891535, -0.3330378, -0.2793283, -0.25948143, -0.16277166, -0.041868564, -0.035044886, -0.0064449287, -0.13956018, -0.42483798, -0.21687764, -0.21239166, -0.5810712, -0.775044, -0.364278, -0.70596856, -0.905088, -0.90264153, -0.7830005, -0.5505465, -0.77329224, -0.9204683, -0.981904, -1.1356165, -1.0237528, -0.637017, -0.65357333, -0.41134775, -0.4108295, -0.32492533, -0.25634083, -0.16037889, -0.15659295, -0.018511113},
  {-0.011276144, -0.020074977, -0.03379704, -0.016842056, 0.013324939, -0.02006161, -0.022858292, -0.03848912, -0.12696287, -0.07898639, -0.062423065, -0.21063209, -0.08266559, -0.19004782, -0.2693502, -0.07739656, -0.09813513, -0.0535878, -0.16293372, -0.26041132, -0.18153358, -0.10847489, -0.20385781, -0.20241638, -0.10419455, -0.09518883, -0.06842911, -0.017273754, -0.024078375, -0.015354408, -0.033839516, -0.013332898, -0.1082498, -0.098316, -0.54249066, -0.37714434, -0.2607914, 0.05839701, -0.056954544, 0.02619522, -0.070961595, -0.19323136, -0.063071385, -0.08804417, -0.041712407, -0.103270695, -0.04430464, -0.11310183, -0.15059322, -0.19558081, -0.24477254, -0.2782579, -0.19650424, -0.22061859, -0.25940472, -0.131031, -0.019140996, 0.027944278, -0.23421842, -0.18742374, -0.20377867, -0.20293726, -0.5962605, -0.152367, -0.353278, -0.2192438, -0.27739435, 0.065385245, 0.1109691, 0.17001529, 0.21477848, 0.2945676, 0.42629153, 0.255915, 0.05764988, -0.10972977, -0.053855013, -0.062406488, -0.10650572, -0.1927386, -0.14638104, -0.22764756, -0.23672932, -0.26996088, 0.17089695, -0.31771216, 0.34510273, -0.0735838, -0.029083934, -0.5786416, 0.03334023, -0.06504153, -0.2641015, -0.3968527, -0.51975846, -0.5419697, -0.47194335, -0.36320502, -0.14634934, 0.10076458, 0.21924333, 0.009945443, -0.29198366, -0.3039395, -0.25373518, -0.22749288, -0.16336496, -0.083208755, -0.077111766, -0.25745288, -0.5452935, -0.48918527, 0.4234707, 0.013745568, 0.3803057, 0.2316109, 0.24861936, -0.098415695, 0.12006784, 0.12673795, 0.124720864, -0.16614315, -0.21357065, -0.23937571, -0.19467242, -0.0780379, -0.07283804, -0.013652395, -0.013674787, -0.14665534, -0.32970884, -0.2507239, -0.1971929, -0.17906964, -0.1304831, -0.17342845, -0.19786635, -0.38898116, -0.5632413, -0.83542985, -0.032923963, -0.008334325, 0.40727144, -0.1625343, 0.4032095, 0.10453902, -0.06883722, -0.16214712, -0.16802241, -0.12760565, -0.23004894, -0.3403902, -0.23003396, -0.1253936, -0.13861957, -0.18711984, -0.12503535, -0.24004853, -0.31890872, -0.26559302, -0.053662598, 0.028951457, 0.08438778, -0.021279154, -0.11683053, -0.45814517, -0.7634432, -0.6323107, -0.16995214, -0.42735213, 0.05432297, -0.39276895, -0.7485736, -0.22124335, -0.24508466, -0.25171977, -0.41544133, -0.3226298, -0.2724853, -0.30315283, -0.31232077, -0.30662692, -0.25314897, -0.2583498, -0.2108317, -0.28502232, -0.3147982, -0.26554206, -0.084132776, 0.09638225, 0.09468366, 0.048095156, -0.09923073, -0.6318727, -1.0961037, -0.9506687, -0.17836356, -0.19094363, 0.025300467, -0.5034289, -0.38748792, -0.12144899, -0.35900363, -0.25585303, -0.40629926, -0.4269632, -0.46744645, -0.30727193, -0.31111538, -0.2999213, -0.25455803, -0.22513139, -0.2895856, -0.2571686, -0.15079375, -0.081160404, 0.01444558, 0.13107288, -0.061848417, -0.1650934, -0.32288712, -0.759426, -1.1720426, -0.89412934, -0.08132474, -0.51306504, -0.44812986, -0.76116145, -0.20051327, -0.2026006, -0.29113036, -0.2239617, -0.29340133, -0.4763606, -0.36259726, -0.21587202, -0.1597398, -0.069083616, -0.18177438, -0.17946634, -0.11702956, -0.08510649, -0.038308673, -0.0775759, 0.06457331, -0.06290471, -0.17952605, -0.25115675, -0.4906409, -0.87985986, -1.0902466, -0.51692677, -0.19509631, -0.16564229, -0.53892004, -1.0254656, -0.19977127, -0.2226631, -0.2849896, -0.104701236, -0.09304482, -0.39979613, -0.26819235, -0.054827873, -0.021992924, 0.17164908, 0.07101534, 0.08573573, 0.070955396, 0.11195281, 0.02587236, -0.10373212, -0.11932519, -0.1350778, -0.2661514, -0.2729835, -0.67610264, -0.97796774, -0.96234673, -0.3207096, 0.106140755, -0.08897971, -0.7665127, -1.029707, -0.9679431, -0.5754381, -0.5815491, -0.121886075, -0.20133673, -0.34155872, -0.28662676, -0.07021152, 0.063761115, 0.14497055, 0.19417071, 0.3111179, 0.30743054, 0.17663041, 0.0061952164, -0.17731048, -0.25919548, -0.23801407, -0.31238446, -0.40332946, -0.66670775, -0.74183595, -0.6590014, -0.54354405, 0.020614017, 0.13853724, -0.2602463, -0.46245867, 0.07839947, -0.14937639, -0.97713834, -0.45244074, -0.30794096, -0.22357677, -0.14462933, -0.13498577, -0.054638192, 0.10097625, 0.26712528, 0.46934912, 0.39793143, 0.16836548, -0.0049318885, -0.13425057, -0.23160373, -0.27878198, -0.2255768, -0.3228419, -0.45326018, -0.45310935, -0.28377545, -0.3530434, -0.40452796, 0.007798164, -0.0037355549, -0.17197078, 0.31006998, 0.16125108, -0.29238263, -0.32288757, -0.24375156, -0.23532611, -0.20159669, -0.29815096, -0.23228669, 0.01138595, 0.3405692, 0.5209345, 0.38365585, 0.22983748, 0.014073137, -0.120830044, -0.15071782, -0.09354913, -0.06308908, -0.21343532, -0.49490878, -0.31336653, -0.2535702, -0.2812196, -0.087056756, 0.28449306, 0.08727444, 0.091435134, 0.15800738, -0.16941768, 0.10451992, -0.16140677, -0.18054385, -0.13062325, -0.44478795, -0.66301095, -0.4822097, -0.0043434873, 0.40816268, 0.59560984, 0.36422604, 0.1463016, -0.06341346, -0.17930573, -0.16704585, -0.086793594, -0.14187002, -0.23130688, -0.3782892, -0.45391408, -0.4525599, -0.17279606, 0.027307004, 0.3233433, 0.3151576, 0.044832945, 0.14225496, -0.033174273, -0.30697292, -0.24696188, -0.14766282, -0.15716165, -0.5979674, -0.7724126, -0.49882346, 0.06181431, 0.53077656, 0.52404284, 0.32670185, 0.13380861, -0.13378619, -0.42430398, -0.34253022, -0.21588184, -0.1896321, -0.33923715, -0.47509828, -0.48296502, -0.3358962, -0.58015275, 0.22708239, 0.013287553, 0.12728485, -0.05477194, 0.08639292, 0.0051730922, -0.3817628, -0.13499825, 0.00096458977, -0.12081992, -0.4809862, -0.5993809, -0.31967843, 0.0996607, 0.60567564, 0.45617136, 0.28654373, 0.08156513, -0.3638439, -0.6011001, -0.46365896, -0.33736825, -0.40632296, -0.43843013, -0.46535102, -0.39030337, -0.3622313, -0.5505874, 0.14533336, 0.24951153, 0.21697614, 0.013669039, -0.079325244, -0.57589877, -0.41042116, -0.50226957, -0.30395183, -0.30343187, -0.3691965, -0.4252986, -0.22487734, 0.21074249, 0.54269207, 0.43540558, 0.27077067, -0.16749206, -0.55701166, -0.6522134, -0.4663302, -0.3335675, -0.28392723, -0.3100394, -0.3565611, -0.6067207, -0.56157935, -0.45946217, 0.054382555, 0.00019749613, -0.047827825, -0.41330954, -0.72106105, -0.8512556, -0.73926824, -0.715568, -0.6091681, -0.33826634, -0.3058165, -0.30545658, -0.116561644, 0.27900004, 0.48071843, 0.38372585, 0.04836226, -0.44513583, -0.6045823, -0.46649212, -0.26890704, -0.021102084, 0.007541093, -0.17207272, -0.23242489, -0.3166935, -0.286955, -0.25553, -0.18135859, -0.18227123, -0.6551089, -1.2482306, -0.5068333, -0.7508392, -0.8158079, -0.5497669, -0.43151203, -0.19655189, -0.15242368, -0.12760343, -0.029130263, 0.33532757, 0.48925543, 0.28102008, -0.08990769, -0.42776704, -0.29815653, -0.20525269, -0.0090348525, 0.16098043, 0.0887877, -0.06773168, -0.036939923, -0.08397612, 0.068035334, -0.065737985, -0.32165474, -0.52663106, -0.19913936, -1.1023985, -0.7126663, -0.562749, -0.42405516, -0.29051194, -0.0383544, 0.030935787, 0.098180346, -0.044694133, 0.0068187336, 0.30974633, 0.38061097, 0.1403581, -0.12020501, -0.17019904, 0.014430931, 0.1015657, 0.1970078, 0.10953919, 0.12760675, 0.009682293, -0.13339517, -0.017778061, 0.09581917, 0.03811883, -0.58452195, 0.11206497, 0.01838661, 0.4124995, -0.32154542, -0.7020713, -0.52657413, -0.09486608, 0.053232435, 0.17472424, 0.22422178, -0.0046809283, -0.027316606, 0.109149, 0.21706031, 0.04797788, -0.058716007, -0.06866059, 0.040844835, 0.19481033, 0.11827703, -0.030905474, 0.0021748596, -0.17962405, -0.29413885, -0.031034192, 0.21960862, 0.042830832, 0.05276293, 0.097828194, 0.5608319, 0.6709319, 0.32727623, 0.14639066, 0.017569844, 0.092192486, 0.08906013, 0.13138391, -0.025043178, -0.07807185, -0.19743337, -0.13759422, -0.04290325, -0.054468613, -0.10636433, -0.012943464, 0.12790745, 0.22447535, 0.11477207, 0.010962497, -0.06035374, -0.16284935, -0.113684684, 0.06777307, -0.015278786, -0.053069226, -0.06588258, -0.5930284, -0.2472214, -0.029605094, 0.2989366, 0.23980574, 0.30909047, 0.07589909, 0.0728818, -0.010733597, -0.020275688, -0.09535359, -0.15981458, -0.16532344, -0.053227656, 0.11137154, 0.02711636, 0.10658778, 0.21543445, 0.14816663, 0.09451166, 0.12469606, -0.11276941, -0.19425683, -0.107349895, 0.11799019, 0.35137573, 0.43838465, 0.060549308, -0.64541805, -0.5936672, -0.8453353, -0.35965094, -0.00488732, 0.24906139, 0.0037136665, -0.1329789, -0.07738657, -0.03223483, -0.094881065, -0.08991966, -0.20341729, -0.09467687, 0.04939967, 0.11021562, 0.1074332, 0.1507893, 0.09056871, 0.15902786, 0.030223338, -0.23319432, -0.28954336, -0.22281283, 0.004554266, 0.27618182, 0.424362, 0.09597313, -0.45800453, -0.81582, -0.84884006, -0.53796685, -0.17542493, 0.033237267, 0.02319479, -0.09344328, 0.03173358, 0.00814843, -0.09871206, -0.13498233, 0.047196835, 0.0052189766, -0.17303954, -0.11207459, 0.10265327, 0.101010725, 0.11734168, 0.2812842, -0.032253504, -0.3051668, -0.40703082, -0.2646976, -0.1689056, 0.29263237, 0.2093414, -0.062837675, -0.11614786, -0.030442536, -0.33770454, -0.51367074, -0.26645365, -0.01885599, -0.11132584, -0.03034906, -0.1828677, -0.42498204, -0.44356886, -0.32767946, -0.15725479, -0.25604525, -0.24529909, -0.34166175, -0.26967752, -0.29826888, -0.07082287, 0.36291793, -0.028963052, -0.15771657, -0.42130157, -0.24547628, -0.18687052, 0.31023565, 0.054212175, 0.03392142, -0.24321301, -0.020492898, -0.08241693, -0.29460898, -0.51102346, -0.4870191, -0.45043984, -0.3754977, -0.36776295, -0.8161132, -0.9137016, -0.5614199, -0.45801938, -0.41871566, -0.54270583, -0.8079771, -0.69947493, -0.81830114, -0.5229525, -0.102211565, -0.20739777, -0.45345408, -0.17831413, -0.18667994, 0.12855367, -0.0051329704, -0.036840864, -0.028504526, -0.006380773, -0.11188852, -0.14712413, -0.6863927, -0.9287013, -0.7058574, -0.56824934, -0.30498707, -0.61472255, -1.2173009, -0.9907362, -0.6121808, -0.70606434, -0.42922783, -0.5683268, -0.5630932, -0.8043667, -0.84894764, -0.7184361, -0.4407529, -0.4202685, -0.30897865, -0.11230875, -0.12039272, -0.10556461, -0.25769064, 0.012706599},
  {-0.020550018, -0.0034225201, -0.060305495, -0.025211317, -0.50472635, -0.8090659, -0.2931436, 0.017204626, -0.0067221643, -0.12619728, -0.14715378, 0.03823323, 0.11884102, 0.021761011, 0.25239676, -0.051207025, -0.087410495, -0.03841554, 0.06548104, 0.06993363, -0.10981447, -0.17445196, -0.26546028, -0.16601112, -0.105442114, -0.09740428, 0.020923749, 0.013945061, -0.019569676, -0.0049050795, -0.5063678, -0.1394089, -0.42014968, -0.6167097, 0.19339688, 0.2295499, -0.14982753, -0.19962443, -0.12435221, -0.09537385, 0.018585129, 0.13299774, 0.16711439, 0.11652798, 0.15943508, 0.057364125, 0.031020626, -0.060897168, -0.21833397, -0.2515941, -0.15372087, -0.15861738, -0.054734565, -0.035091687, 0.048986927, 0.13362195, -0.0632241, -0.13181677, -0.32392755, -0.36754164, -0.5404667, -0.3924297, 0.10392179, 0.120148964, 0.09160245, 0.14846948, 0.13273567, 0.15130359, 0.12432564, 0.23603898, 0.2440592, 0.16982, 0.12706773, 0.13572608, 0.08002939, -0.27408555, -0.33337954, -0.20819385, -0.06702125, -0.025749933, -0.016016966, -0.1654392, -0.12817918, -0.16098632, -0.24213816, -0.3067605, -0.37015724, -0.10150594, 0.102557905, -0.31475866, -0.0039185435, 0.18805577, 0.475161, 0.5174685, 0.3460631, 0.3825478, 0.3699798, 0.31784675, 0.21905541, 0.1311907, 0.11722913, 0.08554496, 0.06671624, -0.054807186, -0.080762886, -0.1038631, -0.27577853, -0.37212086, -0.19145484, -0.093228854, -0.110239886, -0.14641286, 0.051800493, -0.39440975, -0.35354656, 0.11687193, -0.23724659, -0.030430239, 0.22259861, 0.13419756, 0.23436603, 0.33453712, 0.29717606, 0.35985848, 0.32901287, 0.28672224, 0.17672452, 0.17284265, 0.2024652, 0.21762013, 0.2454646, 0.0932529, 0.05738526, 0.060099214, -0.021953888, -0.2014753, -0.103836834, -0.075344734, -0.024605673, -0.0123120425, -0.3188107, -0.43629184, -0.21158336, -0.15973307, 0.040938064, 0.12594439, 0.17891195, 0.15699515, 0.030265631, 0.029672122, 0.1052577, 0.16468675, 0.13572347, 0.13179429, 0.16928071, 0.19521672, 0.19471137, 0.19588535, 0.12727502, 0.11636072, 0.05997209, 0.0011198635, -0.002480485, -0.18643819, -0.30813166, -0.33270824, -0.37776327, -0.12099642, -0.14828087, -0.70886415, -0.08116385, -0.13442442, -0.009487136, 0.029226076, 0.13694781, 0.102299154, 0.13481952, 0.09824585, 0.073376246, 0.123655565, 0.17059155, 0.17189853, 0.1844158, 0.12549038, 0.17881842, 0.120376445, 0.06781387, 0.050970003, 0.0391823, 0.0028973476, 0.04466355, -0.17442696, -0.4386601, -0.43914047, -0.32819733, -0.1548168, -0.29808626, -0.06855135, 0.37696794, -0.13588758, 0.1053391, 0.08573804, 0.026992762, 0.033411425, 0.01295228, 0.018988336, 0.07234011, 0.110832185, 0.124336824, 0.11675552, 0.10893618, 0.058642957, 0.04673238, 0.07084422, -0.031689696, -0.0039114854, -0.014576397, 0.06349872, 0.03416701, -0.122135505, -0.44854605, -0.41524458, -0.65736693, -0.5663572, -0.36379868, -0.6413614, 0.005490146, -0.00056428777, 0.057975154, 0.36786327, 0.123063095, 0.027883027, -0.030483952, 0.06355086, 0.1761141, 0.10188075, 0.034570478, 0.0896446, 0.13653779, 0.087441556, 0.052255362, 0.00816247, 0.048618417, -0.012159751, 0.0029948135, 0.041322198, 0.10405487, -0.05721802, -0.43858528, -0.6556148, -0.7256311, -0.37393537, -0.7298835, -0.4607278, 0.14567077, 0.26133242, -0.014093379, 0.20939073, 0.1499152, -0.057706956, -0.074896544, 0.027456714, 0.011489067, 0.099370226, 0.03672424, 0.15581064, 0.13132416, 0.13783187, 0.10105693, -0.016480168, 0.061958414, 0.028645726, -0.06133219, -0.06412988, 0.02979954, -0.036820214, -0.4090903, -0.6150839, -0.4349547, -0.1200118, -0.6272239, -0.43610346, 0.25920084, 0.35230818, 0.06895691, 0.2071546, 0.092302255, -0.093751006, -0.11215854, -0.049310207, -0.04714967, -0.08435584, -0.090909794, -0.19516738, -0.1326302, -0.08977933, -0.058259685, -0.023778453, -0.0026722036, 0.05188063, -0.00887509, -0.032866932, -0.0010070349, 0.037587203, -0.3184869, -0.5010351, -0.2498675, 0.043506842, -0.25996813, -0.9010171, 0.2839676, 0.24226926, 0.16223693, 0.020422466, -0.10676658, -0.18674606, -0.2340639, -0.44851133, -0.51390064, -0.556082, -0.5775496, -0.6976986, -0.5121557, -0.4352815, -0.25043148, -0.0999915, -0.08024462, 0.01856904, -0.008556746, -0.015837207, 0.12964988, 0.01352571, -0.23707078, -0.15946864, 0.18187399, 0.2933729, -0.23687302, -0.27221352, -0.79051554, -0.012745472, -0.33728284, -0.41551632, -0.56190234, -0.58806175, -0.67002416, -0.6000953, -0.6544258, -0.6619775, -0.6606827, -0.68146473, -0.6023815, -0.43820542, -0.2917849, -0.15149498, -0.0748067, 0.012247168, -0.0072834995, -0.03564174, -0.00074580126, -0.091719426, -0.059070066, 0.33211848, 0.5683302, 0.6606317, -0.35275972, 0.14908527, 0.20953882, 0.056161463, -0.32447878, -0.70251435, -0.8923278, -0.84324086, -0.68240595, -0.4218849, -0.36198214, -0.30312386, -0.27030304, -0.28990984, -0.19165169, -0.20467187, -0.18510872, -0.17550084, -0.13638929, 0.036707733, 0.021708354, 0.0058564115, -0.034007534, -0.11161668, 0.0789224, 0.5270798, 0.7557439, 0.7317553, -0.4254095, 0.39443108, 0.5807277, 0.37893835, -0.3382387, -0.6702541, -0.676121, -0.590631, -0.3729248, -0.18391255, -0.23100689, -0.15208553, -0.19540899, -0.101770066, -0.057499934, -0.072376184, -0.06125565, -0.066470966, 0.016462335, 0.06691842, -0.033109307, -0.082571834, -0.08430472, -0.15906346, -0.045609277, 0.43929282, 0.8967351, 0.8318322, -0.23325881, 0.8977593, 0.7727943, 0.35978916, -0.14426011, -0.5319927, -0.43930545, -0.25469467, -0.17541666, -0.261909, -0.2676754, -0.23401178, -0.15163295, -0.018272707, 0.10950838, 0.0053134514, -0.067346126, -0.016069615, 0.034207527, 0.12720524, -0.005399747, -0.108534224, -0.06654248, -0.045329306, 0.084964804, 0.4124137, 0.79516894, 0.8935438, 0.16683601, 0.53603077, 0.2296419, 0.023414075, -0.17405646, -0.2543882, -0.14126605, -0.111321695, -0.15334742, -0.08440047, -0.06105622, -0.018368158, 0.094194435, 0.25708264, 0.21446332, 0.091484085, -0.0054513137, 0.015396045, -0.009533419, 0.03410119, -0.003071326, 0.06589792, 0.04585271, -0.03393764, 0.16154732, 0.59598273, 0.8419891, 0.883424, -0.0004578832, -0.025656473, -0.019647522, 0.47871536, 0.15597016, 0.0038528475, 0.04312143, -0.0053037144, -0.13495436, -0.06474063, -0.018267265, 0.049149867, 0.16705695, 0.3465837, 0.24862939, 0.048675742, 0.03822109, 0.050239075, 0.09276657, 0.053269137, 0.0011297121, 0.052997034, 0.051145438, 0.04138889, 0.26277992, 0.6046909, 0.8546319, 0.6893924, -0.34040266, -0.41323635, -0.30403015, 0.08909977, 0.2140666, 0.21230067, 0.16208364, -0.008821059, -0.048688482, -0.030408021, 0.043812856, 0.11224392, 0.20042008, 0.36958238, 0.27231327, 0.14601746, 0.15623534, 0.12927152, 0.078978494, -0.026309654, 0.009769835, 0.04389069, 0.18734059, 0.23708582, 0.26157862, 0.5724159, 0.64150304, 0.41710502, -0.15167587, -0.4475046, -0.65283865, -0.18323484, 0.04924937, 0.24891555, 0.12900648, 0.13687173, 0.12218949, 0.106615074, 0.060851183, 0.083041936, 0.206354, 0.26167047, 0.21838868, 0.15594624, 0.14131904, 0.09329834, 0.02084317, 0.02789849, 0.011707202, 0.15918355, 0.20323205, 0.17251416, 0.26969063, 0.55224985, 0.59367394, 0.27306548, -0.04579434, -0.40976712, -0.39905545, -0.13767064, 0.15526855, 0.14015426, 0.04823934, 0.10968114, 0.07470775, 0.10083247, 0.1433901, 0.103963934, 0.12458142, 0.06745426, 0.09435179, 0.041965317, 0.08820831, 0.11332414, 0.06874378, 0.06547495, 0.10165242, 0.24661037, 0.33656815, 0.25153846, 0.16338494, 0.34784123, 0.35793784, 0.1357319, -0.06466086, -0.26213267, -0.56887156, -0.17551762, 0.078610085, 0.084224105, 0.009339173, 0.11685051, 0.123210795, 0.06416263, 0.08573443, 0.12090249, 0.120476976, 0.10797824, 0.021062918, 0.008450955, 0.06848418, 0.08151664, 0.1118436, 0.13955101, 0.14369902, 0.14867905, 0.23130897, 0.117099814, 0.14423257, 0.27477074, 0.1915926, 0.076064184, -0.26966462, -0.29960045, -0.5679974, -0.068416685, 0.110986225, 0.019223923, 0.12906715, 0.13092847, 0.053528517, 0.021573884, 0.07861855, 0.0017681688, -0.030858083, -0.11021308, -0.09960608, -0.115035705, -0.102219746, 0.010829054, 0.14503872, 0.13188365, 0.18251173, 0.11339669, 0.13979572, 0.099589385, 0.16585515, 0.15412304, 0.093513705, -0.054279562, -0.35123265, -0.91668034, -1.0500793, -0.3707612, -0.12350696, -0.31741202, -0.23901665, -0.07316296, -0.07558278, 0.023562305, 0.077215, -0.067626014, -0.034128275, -0.13589671, -0.10130028, -0.13755134, -0.13358778, 0.031930383, 0.25327846, 0.32227302, 0.30375984, 0.26450485, 0.20081569, 0.21145257, 0.16049992, 0.14643233, 0.22203138, 0.47612998, -0.06706045, -0.45705062, -0.559453, -0.17459217, -0.13363005, -0.40561363, -0.5023473, -0.39914614, -0.17679508, -0.21167009, -0.23346521, -0.2597437, -0.21980587, -0.19330844, -0.078418106, -0.013223787, -0.06894286, 0.0634698, 0.20650294, 0.24868022, 0.13334177, 0.078763224, 0.10896204, 0.21839279, 0.17407188, 0.035715282, 0.06276283, 0.3061447, -0.062243976, -0.096717305, -0.10812004, 0.0014991874, -0.42032918, -0.5385621, -0.6587845, -0.63596237, -0.464382, -0.5243665, -0.57626814, -0.53174365, -0.48700982, -0.33400494, -0.2736704, -0.104895376, -0.22906536, -0.13263357, -0.13058698, -0.2473825, -0.32967186, -0.23395239, -0.1791536, -0.26182753, -0.05760238, 0.24633853, 0.46171996, 0.24048664, -0.026164465, -0.06347209, -0.32394245, -0.26108897, -0.8060584, -0.4611565, -0.6276544, -0.6788446, -0.9811815, -0.8852787, -0.6921001, -0.76101744, -0.8163108, -0.92985845, -1.0048443, -0.7515943, -0.4947174, -0.21864416, -0.2853033, -0.51124257, -0.6264378, -0.42356196, -0.41220576, -0.5553626, -0.43624845, -0.32475537, -0.21166685, 0.1405454, -0.017657787, -0.028229894, -0.13184465, -0.38166803, -0.542103, -0.6908673, -0.4127028, -0.5660417, -0.9601236, -0.78839743, -0.52519804, -0.51682264, -0.4597144, -0.5656899, -0.8359311, -0.7113727, -0.50653183, -0.2329525, -0.384995, -0.8539063, -0.86015886, -0.58157927, -0.53465843, -0.44269255, -0.23387796, -0.2661506, 0.13585964, -0.027784456},
  {0.029224547, -0.026828367, 0.027494762, 0.009182583, -0.052616388, -0.11477121, -0.2120192, -0.102163196, -0.09361689, -0.123480655, -0.15869138, -0.15879214, -0.21692142, -0.26880968, -0.21188961, -0.21908581, -0.21240444, -0.18373807, -0.0991535, -0.043895636, -0.06916592, -0.23321165, -0.12681155, -0.08293406, -0.10647848, -0.07687015, -0.03189801, -0.029611196, -0.023726601, -0.018986354, -0.13075766, 0.15127605, 0.041953214, 0.031803906, -0.14035629, -0.24001639, -0.09351615, 0.1444163, -0.025245836, -0.20250267, -0.13394675, -0.1555766, -0.078367665, -0.23716477, -0.17017576, -0.2966958, -0.17574812, -0.1789405, -0.09224187, -0.11089044, -0.06942649, -0.12503335, -0.08443287, -0.1478449, -0.24781856, -0.037836734, -0.082561366, -0.061136864, -0.13724904, 0.4080934, 0.1834426, 0.37192237, 0.18547629, 0.0507601, 0.16215773, 0.17169504, 0.25161818, 0.06905467, 0.22508639, 0.016615681, -0.17346886, -0.08516009, -0.20918205, -0.17911385, -0.19136551, -0.16311297, -0.048557438, -0.13648681, -0.12231758, -0.16457157, -0.23659043, -0.4092421, -0.44129843, -0.1258614, -0.17271785, -0.04470498, 0.0081203105, 0.21416433, 0.18233259, 0.47546765, 0.5175962, 0.22655025, 0.2547908, 0.13389057, 0.18175736, 0.29025704, 0.40695357, 0.36726022, 0.2756704, 0.24214208, 0.081302755, 0.111275055, 0.08068672, 0.009979985, -0.09115452, -0.17207035, -0.2663514, -0.3286885, -0.27376089, -0.36192966, -0.30904332, -0.13766459, -0.20693, 0.18729337, 0.42419934, -0.21536495, 0.17563546, 0.34297243, 0.22236241, 0.37115982, 0.34784743, 0.23030367, 0.1799048, 0.26458576, 0.21322142, 0.17587958, 0.15133062, 0.08979404, 0.12956545, 0.025584757, 0.022764131, 0.05359083, 0.02160277, -0.17878124, -0.312663, -0.41507003, -0.5478321, -0.3428744, -0.30101982, -0.22572581, -0.27525648, 0.45131135, 0.10088464, 0.23292434, 0.10682232, 0.19325183, 0.14365555, 0.26428166, 0.24136758, 0.20541412, 0.17671156, 0.13969564, 0.08897455, 0.10357073, 0.086428896, 0.12745936, 0.10368404, 0.010687909, -0.029320536, -0.07393319, -0.17488016, -0.1641726, -0.22753516, -0.2927192, -0.25822347, -0.27244884, -0.21420345, -0.42980865, -0.57369226, 0.3063763, 0.010136032, 0.22871578, 0.25207967, 0.31126457, 0.38783148, 0.26382145, 0.18260318, 0.12820403, 0.18647462, 0.19920497, 0.18116121, 0.16150437, 0.18112378, 0.16431053, 0.14647381, 0.064559445, -0.029596815, -0.06821571, -0.08158974, -0.1553957, -0.13370426, -0.21303257, -0.21016532, -0.4883422, -0.71924984, -0.45135453, -0.18630856, 0.33828613, -0.0025496394, 0.20515643, 0.23043615, 0.22823419, 0.20422645, 0.16250092, 0.16512465, 0.15445761, 0.20039828, 0.16084236, 0.26141432, 0.23935167, 0.15861247, 0.13877481, 0.08186538, 0.026711551, 0.0652595, 0.028729089, -0.07787973, -0.11019372, -0.1487495, -0.18605949, -0.3313638, -0.56952757, -0.7679267, -0.57915276, -0.029755944, 0.48200855, 0.5354311, 0.23441689, 0.38806495, 0.2897852, 0.21832868, 0.121130385, 0.13098823, 0.11130173, 0.15790409, 0.06080243, 0.12667, 0.09837508, 0.077582724, 0.07980523, -0.0027944567, -0.019399447, 0.11824088, 0.04584119, 0.027873673, 0.018021783, -0.03753523, -0.14362112, -0.4833055, -0.84605086, -0.80845785, -0.43989858, -0.28991294, 0.46404922, -0.12197655, 0.06896211, 0.50620854, 0.37589782, 0.23508577, 0.11651352, 0.15962727, 0.010841806, -0.08889329, -0.16290018, -0.18562968, -0.12870827, -0.018638805, 0.1519828, 0.026381038, 0.086350605, 0.099339865, 0.18674868, 0.16185528, 0.1195911, 0.12546492, 0.017321503, -0.4406715, -1.0351824, -0.79755765, -0.58047616, -0.3937208, 0.7720715, 0.14119886, 0.45066214, 0.34738564, 0.2854124, 0.12568596, -0.02523365, -0.056878723, -0.2836819, -0.38928705, -0.45398158, -0.41881588, -0.30018005, -0.054705884, 0.14776844, 0.21417896, 0.19321312, 0.16421811, 0.20842656, 0.2248344, 0.18310542, 0.274898, 0.04659857, -0.5063915, -1.0678668, -0.94070333, -0.31848514, -0.4014364, 0.17607552, 0.2345143, 0.79765725, 0.31264752, 0.050965052, -0.07646391, -0.14543594, -0.33960894, -0.49197215, -0.41109046, -0.40945393, -0.22938591, -0.014185854, 0.18514042, 0.22201228, 0.17169783, 0.20641766, 0.17343916, 0.17000641, 0.10502061, 0.095156245, 0.09424791, -0.12086113, -0.61081076, -0.7468622, -0.39208183, -0.30771354, -0.7032377, -0.2497047, -0.10543656, 0.47009304, 0.28957558, -0.07840491, -0.12555227, -0.13910143, -0.25980315, -0.29301572, -0.19388354, -0.1934355, -0.097559355, 0.16422236, 0.28593007, 0.21669927, 0.1543535, 0.117327064, 0.09812752, 0.067217894, -0.017870959, -0.21766296, -0.34261462, -0.49099556, -0.7193109, -0.6399732, -0.2549471, -0.17272429, -0.4605654, -0.18001057, -0.2549721, 0.07153843, -0.050438214, -0.15413556, -0.21233772, -0.28006276, -0.28121164, -0.30191445, -0.24725296, -0.14171264, -0.13558802, 0.075783625, 0.13712116, 0.19858742, 0.13133332, 0.04124797, 0.014578979, -0.093082406, -0.27923417, -0.43015978, -0.5498358, -0.6174481, -0.65791416, -0.4286927, -0.1595784, -0.36842585, 0.10589301, 0.114558995, 0.16558525, 0.17413579, 0.09287864, -0.1353557, -0.38748685, -0.27380428, -0.34394774, -0.16104923, -0.16309537, -0.2564442, -0.09554557, 0.08344066, 0.15446337, 0.08000274, -0.03813926, -0.040479086, -0.041312788, -0.13575591, -0.18457891, -0.2758117, -0.36601883, -0.36566883, -0.43314666, -0.32029966, -0.09813858, -0.28706336, 0.4575222, 0.14865448, 0.30910495, 0.10759408, 0.14474516, -0.052687343, -0.27300072, -0.4716118, -0.50813574, -0.1521888, -0.14523572, -0.09132956, 0.0042995084, 0.17305376, 0.155159, 0.020609193, -0.084801964, -0.064097956, -0.025478477, -0.0885625, -0.0075772265, 0.040838175, -0.108925976, -0.050214566, -0.03244688, -0.08840078, -0.20923868, -0.43408546, 0.23548645, 0.5419164, 0.8811596, 0.22785378, 0.30693123, 0.08429281, -0.14500894, -0.31975883, -0.41466343, -0.48229817, -0.3704794, -0.31576544, -0.08435536, 0.09152593, 0.07648487, -0.100438885, -0.17527807, -0.026993413, -0.039036185, -0.01244228, -0.0005643985, 0.025093611, 0.086484805, 0.078403145, 0.13302653, -0.13572633, -0.6133384, -0.6591746, 0.25449046, 0.59711045, 0.28614822, 0.14826787, 0.39670703, 0.25171942, 0.052298296, -0.15718806, -0.27170044, -0.42684948, -0.4918858, -0.5056216, -0.3474233, -0.15057373, -0.16135344, -0.1769795, -0.15872312, -0.014556507, 0.050913263, 0.07694232, 0.053096943, 0.052206513, 0.086732075, 0.08230685, -0.0566316, -0.3828175, -0.7732727, -0.4677096, -0.1222537, 0.9715749, 0.1863052, 0.425201, 0.44538203, 0.23482727, 0.08012164, 0.0025843848, -0.11064724, -0.28691506, -0.4922716, -0.5793742, -0.4952612, -0.40506834, -0.29204768, -0.2599485, -0.022695571, 0.07898963, 0.14642896, 0.120181546, 0.023506716, 0.058608174, 0.09177678, 0.06657489, -0.21584253, -0.55363923, -0.62229156, -0.45667604, -0.13279523, 0.33938995, 0.3694061, 0.53272295, 0.56131977, 0.35340092, 0.15217867, 0.057833523, -0.030987954, -0.073527634, -0.22643934, -0.3254652, -0.44771045, -0.38438055, -0.3155012, -0.19364874, 0.05166878, 0.113431476, 0.19260031, 0.15584035, 0.11666313, 0.10097033, 0.09724987, 0.01107822, -0.23170693, -0.49830076, -0.5549488, -0.380775, 0.0426443, 0.58926964, 0.4294684, 0.4308424, 0.4331283, 0.36839804, 0.2257418, 0.11496129, 0.04114724, 0.008363469, -0.099878944, -0.24037969, -0.29739124, -0.25698367, -0.19784752, -0.07681828, 0.073803864, 0.12699896, 0.1932681, 0.18230934, 0.15233774, 0.032272875, 0.013990421, -0.16202766, -0.3425026, -0.31746766, -0.45125994, -0.16527121, 0.33601692, 0.3035746, 0.26327085, 0.30252662, 0.18510555, 0.14652947, 0.18176527, 0.0852981, 0.02748767, -0.036157295, -0.08408861, -0.15335345, -0.19790152, -0.1190155, -0.09276372, -0.029160902, 0.023078576, 0.13379495, 0.1849032, 0.12082954, 0.09323098, 0.06153114, -0.09063655, -0.19822729, -0.33980867, -0.41313002, -0.38299736, -0.070677735, 0.32463446, 0.48800153, 0.65232635, 0.3632099, 0.27599895, 0.11301615, 0.075818926, 0.1054128, 0.113520086, 0.11325076, -0.026375081, -0.11296689, -0.13571303, -0.10327207, -0.028434252, -0.04005641, 0.014262269, 0.061046828, 0.12823237, 0.24080317, 0.15275572, -0.022975074, -0.16109017, -0.22520597, -0.4201406, -0.47957423, -0.30045852, 0.09700245, 0.34992406, 0.7103455, 0.33362934, 0.58192873, 0.56217164, 0.37785283, 0.19918719, 0.1346109, 0.17475958, 0.07847053, 0.042416498, 0.058087222, 0.0181481, -0.00065571384, 0.001187034, 0.027933348, 0.0013174561, 0.1367509, 0.1754481, 0.12201576, -0.04122352, -0.15450613, -0.18630366, -0.17016172, -0.34794387, -0.3661609, -0.4534926, 0.053627416, -0.017020943, -0.3034322, 0.35402188, 0.14423415, 0.41737834, 0.27434874, 0.36666957, 0.40981704, 0.23299661, 0.24624722, 0.27095315, 0.26923627, 0.22096659, 0.121958725, 0.11187782, -0.0034596215, 0.01090749, -0.03708977, -0.007847616, 0.032608062, -0.031804413, -0.09274686, -0.2340138, -0.3332588, -0.43992388, -0.19971322, -0.0745171, 0.0015575626, 0.11003725, 0.05618849, -0.16758806, 0.04263191, 0.32911038, 0.40439853, 0.38959238, 0.55073327, 0.43586063, 0.32092854, 0.39010558, 0.30996656, 0.24208903, 0.089077845, -0.003119573, -0.09716104, -0.030337011, 0.07917892, 0.035961665, 0.010597052, -0.017572869, -0.14305001, -0.04711918, -0.07781252, -0.32655233, -0.3259279, -0.1332285, -0.12861386, 0.0245338, 0.06403749, 0.13642551, 0.1123208, -0.048974264, -0.07715768, -0.104285695, 0.012288837, 0.005680591, 0.14008188, 0.25848693, 0.28784242, 0.2033474, 0.17084976, 0.03548941, -0.18814331, -0.0053141876, -0.011702977, -0.11098586, 0.10612687, 0.21403156, -0.15398605, -0.12042217, 0.06307144, -0.066671945, -0.13399689, -0.3747059, -0.18160406, -0.003749226, 0.063110925, 0.033097107, -0.17907016, -0.39563859, -0.40848956, -0.43548912, -0.5174161, -0.15990348, -0.10024287, -0.05455726, -0.10977103, -0.14511801, -0.13500707, -0.14320794, -0.3221008, -0.22301051, -0.15533449, -0.27247375, 0.01761505, 0.15837122, -0.15934153, 0.050170943, -0.11254563, -0.021796767, -0.23753648, -0.09810534, -0.011976805},
  {-0.11931729, -0.009397026, -0.0018289399, -0.035760816, -0.52941996, -0.35090262, -0.12601204, -0.18026584, -0.4960638, -0.3751328, -0.25636208, -0.20882645, -0.33730015, -0.41825655, -0.6090298, -0.33120093, -0.3025397, -0.42042565, -0.65357184, -0.68467695, -0.54352814, -0.30829424, -0.19980277, -0.28029943, -0.2956054, -0.26158857, -0.19898894, -0.005901439, -0.1337762, -0.0071202093, -0.40720767, -0.12764835, -0.57466334, -0.7318371, -0.4574913, -0.7500839, -0.5960345, -0.42225146, -0.32792842, -0.51988053, -0.7289121, -0.6435314, -0.48520783, -0.44549185, -0.53523153, -0.7953069, -0.7300051, -0.65458244, -0.63051975, -0.26250535, -0.255719, -0.3387943, -0.34561, -0.27641606, -0.3073422, -0.27582422, -0.11577174, -0.5186746, -0.17575723, -0.31337774, -0.45373663, -0.39931783, -0.4251349, -0.588725, -0.58556503, -0.40871617, -0.67845964, -0.8070938, -0.80291337, -0.6966331, -0.3656093, -0.46387687, -0.59900045, -0.53306514, -0.33806425, -0.27593353, -0.20885082, -0.1574357, -0.10432446, -0.14539455, -0.21433471, -0.1594425, 0.023891982, 0.1410861, -0.065065876, -0.3326054, -0.29282978, -0.76866823, -0.22376731, -0.056808885, -0.17899445, -0.40677747, -0.4959298, -0.36622882, -0.5756435, -0.62126, -0.73640347, -0.5775145, -0.45868275, -0.3884178, -0.36491555, -0.23367801, -0.09549283, -0.20489034, -0.11489858, 0.100778304, 0.18292235, -0.06590865, -0.11503427, 0.14241242, 0.14628308, -0.047548592, -0.34051728, 0.08586955, -0.2717772, -0.4724975, -0.13150577, -0.0065740095, -0.12585936, -0.20779322, -0.25974977, -0.35721615, -0.35562134, -0.26614222, -0.20772856, -0.28862178, -0.26586157, -0.36312255, -0.17738777, -0.0008624882, -0.062150933, -0.010090427, 0.21182501, 0.20789061, 0.13841492, 0.055428497, 0.12081511, 0.23376055, 0.22624712, 0.023147551, -0.41030842, -0.25542688, -0.052725166, -0.18329173, -0.08814664, -0.0958104, -0.27313343, -0.09081758, -0.13083436, -0.166726, -0.16211633, -0.24228795, -0.24611236, -0.4056814, -0.2867825, -0.25216863, -0.15923281, -0.1734362, -0.2891538, -0.2200116, -0.002082362, 0.064670615, -0.008696666, 0.16442233, 0.31238815, 0.26980525, 0.015993532, -0.12736064, -0.3676059, -0.5832299, -0.13334684, -0.16452417, 0.08917034, 0.21097705, 0.015658136, 0.0026338734, -0.055955026, -0.07372256, -0.28207564, -0.34987772, -0.4145215, -0.46534163, -0.53918225, -0.45452136, -0.42965385, -0.40518856, -0.4147322, -0.30944762, -0.102705516, -0.104045935, 0.031059073, 0.24485369, 0.27238223, 0.09228343, -0.13486962, -0.20652291, -0.0054697306, -0.2671786, -0.116084084, -0.15999718, 0.21722303, 0.3783245, 0.16149577, -0.012240705, -0.1057346, -0.049630303, -0.15369113, -0.2988638, -0.33168748, -0.42213625, -0.49876857, -0.51287186, -0.5059244, -0.5364949, -0.375371, -0.21470512, -0.1582131, -0.13660744, 0.035903476, 0.18922335, 0.14307667, 0.0070887487, -0.070319034, -0.12614371, -0.10539802, -0.7306237, -0.3297443, -0.3222017, -0.1878629, 0.030324817, -0.027144345, -0.02872667, -0.12891676, -0.15809223, -0.1909965, -0.274118, -0.3228624, -0.32552648, -0.30865332, -0.4505994, -0.47258538, -0.30530447, -0.18358001, -0.11913557, -0.08999959, -0.08656451, 0.015310301, 0.122342706, 0.1003492, -0.065079406, -0.14916745, -0.342781, -0.68051875, -1.0280797, -0.39221358, -0.5860921, -0.37029943, -0.25515956, -0.095791906, -0.09395009, -0.06496421, -0.14116661, -0.107347205, -0.15787672, -0.24576597, -0.2313065, -0.33493355, -0.5025029, -0.45689029, -0.23512015, -0.06347944, -0.050435286, -0.04768886, 0.02788432, -0.044328187, -0.06896187, -0.21931176, -0.25057417, -0.2780066, -0.30677545, -0.65085614, -0.4662062, -0.5288727, -0.54607785, -0.41219428, -0.21702057, -0.10822689, -0.11303184, -0.061684716, -0.09068116, 0.014252146, -0.033679634, -0.002208759, -0.16872928, -0.43731558, -0.49337292, -0.2573914, 0.0076904665, -0.017755425, -0.031261016, -0.09327387, -0.01837555, -0.072877795, -0.20683748, -0.39337328, -0.40632123, -0.50278205, -0.40974966, -0.70575005, 0.00027575152, -0.5870686, -0.5313056, -0.32045448, -0.15895444, -0.2146187, -0.10763106, 0.017374827, 0.18214282, 0.24624775, 0.2166609, 0.1724526, 0.07336359, -0.44731852, -0.40016726, 0.06302643, 0.07279932, -0.061066154, -0.064613655, -0.119868256, -0.042505447, 0.009708721, -0.19139779, -0.43336046, -0.52402794, -0.45489898, -0.37308085, -0.6491539, -0.60251105, -0.45585203, -0.5182089, -0.35053638, -0.2645573, -0.050098717, 0.08901981, 0.2228314, 0.32444075, 0.37203217, 0.4373703, 0.4678831, 0.25086987, -0.42741284, -0.21568725, 0.13074157, 0.02739202, 0.02591908, -0.0048921006, 0.0799231, 0.19027518, 0.21778071, -0.013509625, -0.14575866, -0.37370792, -0.65002817, -0.4729193, -0.33044538, 0.029562388, -0.29204246, -0.3807235, -0.39509535, -0.15933287, 0.17290695, 0.20341457, 0.28617477, 0.33748037, 0.41209882, 0.4295565, 0.49043912, 0.23326664, -0.26745328, 0.0041546845, 0.2961237, 0.23080575, 0.19159731, 0.27038333, 0.29391783, 0.44746798, 0.3035762, 0.061779294, -0.11793039, -0.28013533, -0.43459946, -0.40612566, 0.32675242, 0.13299711, -0.06341002, -0.5417645, 0.04482368, 0.11465072, 0.20193318, 0.29047468, 0.31007445, 0.2639546, 0.3572529, 0.42657262, 0.43289113, 0.118506536, -0.22864811, 0.03001185, 0.23196572, 0.31482664, 0.21446744, 0.26401463, 0.3460339, 0.24813366, 0.16654554, 0.0148158735, -0.21138921, -0.35556194, -0.49827498, -0.37039068, 0.24658388, -0.549568, -1.066386, -0.5107272, 0.063407205, 0.16887966, 0.189784, 0.29183426, 0.3417202, 0.32612696, 0.2812801, 0.34543774, 0.3131912, 0.046543565, -0.1470089, 0.097443424, 0.30746266, 0.3232669, 0.2889191, 0.25532356, 0.21138832, 0.04898965, 0.12881847, -0.02722836, -0.29248685, -0.3938909, -0.52088267, -0.5090442, -0.11795335, -1.104299, -0.52386546, -0.3584548, -0.20522287, -0.056254573, 0.09000701, 0.19848825, 0.32171625, 0.26494038, 0.17786658, 0.154994, 0.19523418, -0.008349543, -0.078126475, 0.15372013, 0.39050585, 0.4011104, 0.30323088, 0.2556862, 0.11353099, 0.060999386, 0.08509663, 0.026952751, -0.31032133, -0.5350274, -0.5399282, -0.40872616, -0.44170156, -0.3207311, 0.23644896, -0.37113363, -0.51706856, -0.37707692, -0.2394637, 0.09442385, 0.28036976, 0.33013672, 0.1140009, 0.07728096, 0.08614185, 0.027519053, -0.0014927981, 0.20356846, 0.3304326, 0.2742539, 0.16228953, 0.07448838, 0.05243666, 0.08908147, 0.044387616, -0.045103807, -0.22778496, -0.5160006, -0.46208012, -0.35932702, -0.19614975, -0.16603376, 0.1817508, -0.22789389, -0.49114838, -0.3091847, -0.23505065, -0.053956214, 0.10259276, 0.09426566, -0.059556447, -0.110901706, -0.09798084, -0.10676018, 0.087141044, 0.07638989, 0.13022082, 0.13698526, 0.050493907, -0.075978905, -0.05884859, -0.06855454, -0.13290802, -0.16722465, -0.3301866, -0.50618577, -0.5200646, -0.33563435, -0.5291311, -0.45271292, 0.07041759, -0.13709544, -0.3830824, -0.39459684, -0.2542111, -0.23660256, -0.25489473, -0.3318385, -0.41837707, -0.40624744, -0.30013826, -0.059485298, 0.06173072, 0.118645355, 0.057992008, -0.020966012, -0.14840843, -0.20579527, -0.16348062, -0.13391742, -0.31531644, -0.39148903, -0.47883308, -0.6584571, -0.6067456, -0.45371765, -0.23263842, -0.98085195, -0.6745748, 0.010823248, -0.37733775, -0.35342103, -0.21784827, -0.2526221, -0.3672544, -0.35876238, -0.39912927, -0.40393665, -0.21899329, -0.18136105, -0.03152458, 0.07479712, 0.019084359, -0.021434238, -0.1041701, -0.21559808, -0.15464918, -0.121288374, -0.26169318, -0.38707408, -0.38984138, -0.49515396, -0.48627004, -0.39140227, -0.32722062, -0.71699256, -0.6672941, -0.14756688, -0.32913816, -0.12879454, -0.20803776, -0.40339884, -0.40430918, -0.36877993, -0.38759533, -0.28707346, -0.22007181, -0.24989057, -0.085678875, -0.047099937, -0.042037364, -0.01856886, -0.09964815, -0.1076285, -0.016807428, -0.016979106, -0.10727706, -0.053071894, -0.12082329, -0.3844042, -0.5354949, -0.42335543, -0.17038114, -0.18498388, -0.56505877, -0.32585418, -0.28605884, -0.33974263, -0.25117484, -0.47528616, -0.3074138, -0.14323866, -0.31295946, -0.24958126, -0.13789345, -0.13981888, -0.07588662, -0.024909094, -0.012948217, 0.014544593, -0.024221074, -0.025137354, 0.043380592, 0.100864984, -0.00027258205, -0.081200436, -0.17357872, -0.341564, -0.4770335, -0.11545839, -0.11152494, -0.2508213, -0.85394925, -0.24033031, -0.2594751, -0.7555267, -0.45241213, -0.12064873, -0.02559041, -0.117902175, -0.188392, -0.060865752, -0.035982825, -0.109191105, -0.083246045, -0.008999032, 0.05200941, 0.108160354, 0.10252703, 0.13233855, 0.13536093, 0.1718536, 0.043965627, -0.07928388, -0.095479235, -0.22127226, -0.13704303, 0.2589394, -0.09688347, -0.11970912, -0.40305358, -0.44119924, -0.7182456, -0.7252299, -0.43437493, -0.03033349, -0.06680798, -0.18719772, -0.042559106, 0.1159458, -0.040019978, -0.07322447, -0.019546488, 0.05413545, 0.10487149, 0.11228387, 0.04934682, 0.04698976, 0.019710124, 0.12852499, 0.062563136, -0.20816481, -0.269646, -0.1837358, 0.12637973, 0.13024306, -0.2408891, -0.09046097, -0.09847783, -0.18283494, -0.42628753, -0.37328938, -0.5825122, -0.0691554, -0.10043271, -0.17028719, -0.14585231, 0.007518058, -0.101781555, -0.21141121, -0.047147475, -0.07947665, -0.09413072, -0.20388414, -0.17669868, -0.089743555, -0.2477922, -0.09940984, -0.062459603, -0.24987906, -0.33828324, -0.19808263, 0.13992113, -0.04011087, -0.030471867, -0.08442054, -0.36379474, -0.27444202, -0.039228857, -0.1349745, -0.35714582, -0.30263114, -0.5197398, -0.66258043, -0.42787734, -0.28181496, -0.55369043, -0.7525803, -0.49230725, -0.44546354, -0.38125712, -0.54088026, -0.59198844, -0.5586877, -0.561376, -0.45616573, -0.33445838, -0.23351681, -0.315423, -0.23494288, -0.0041209497, -0.082012884, 0.03349641, -0.03400058, -0.13551272, -0.24333791, -0.46645382, 0.042209893, -0.035242833, -0.27545297, -0.79354686, -1.0247263, -0.8874735, -0.5855245, -1.0679072, -0.9898979, -1.1100472, -0.90445143, -0.65203357, -0.84257853, -0.6903476, -0.927379, -0.8076388, -0.91074765, -0.74135065, -0.33243388, -0.2649, -0.12787412, -0.09445896, 0.005603016},
  {-0.033115383, 0.01661454, -0.032317147, 0.016339533, -0.07182293, -0.123268984, -0.14580172, -0.09494473, -0.12574126, -0.1768903, -0.18183199, -0.113899514, -0.16883868, -0.2219696, -0.22867338, -0.20624532, -0.21025245, -0.19654772, -0.275469, -0.38377348, -0.31717104, -0.18624446, -0.19119859, -0.17968458, -0.15144466, -0.22620542, -0.07721386, -0.017486786, -0.07043144, -0.02124262, -0.344398, -0.17892125, -0.18594292, -0.13543327, 0.09828148, -0.12806486, -0.5477425, -0.434057, -0.30086827, -0.34487262, -0.26066327, -0.1501739, -0.14871812, -0.3201514, -0.36575463, -0.07923054, -0.039938696, -0.044967644, 0.022063963, 0.08925414, 0.011944129, 0.025351077, -0.16336088, -0.23206186, -0.05919212, -0.055300932, -0.11622244, -0.058389254, 0.040986665, -0.34814876, -0.033150833, -0.101795554, -0.06998428, -0.2104405, -0.33961707, -0.40980715, -0.52668655, -0.4208836, -0.47806004, -0.3650408, -0.31396356, -0.20486535, -0.10597678, 0.11790682, 0.05474672, 0.07760873, 0.06483961, 0.028284673, 0.032916475, -0.07066909, -0.050698604, 0.0754767, -0.00078697555, -0.059103537, -0.31979737, -0.5009215, -0.771967, -0.1357052, -0.06678914, -0.116876155, -0.29850274, -0.09036398, -0.25151536, -0.051284034, -0.23003669, -0.3937023, -0.33249846, -0.11791387, -0.21383817, -0.20266196, 0.027016912, 0.13793316, 0.19439903, 0.32265636, 0.3687726, 0.3141357, 0.23284468, 0.052570973, 0.116193734, 0.17625727, 0.22321543, 0.12517811, -0.7874333, -0.09797594, -0.6810354, -0.242534, -0.25080824, -0.21683896, -0.32605952, -0.24016418, -0.2862139, -0.12180501, -0.054273378, 0.039787624, 0.041828092, 0.016110055, 0.03487999, 0.05374438, 0.0384992, 0.07602293, 0.12880774, 0.09517631, 0.07446986, 0.25814626, 0.24703978, 0.2813873, 0.16126215, 0.21115911, 0.26994267, 0.11032146, -0.07525466, -0.9175071, -0.39292026, -0.22982602, -0.45980525, -0.29526263, -0.29124472, -0.18436117, -0.18439329, -0.10406756, -0.087099224, -0.0030623116, -0.0027698884, -0.08423887, -0.12605196, -0.075941496, 0.02548876, 0.08225313, 0.1840326, 0.08924817, 0.13649935, 0.10389301, 0.1797218, 0.22043231, 0.28693992, 0.4283417, 0.4518394, 0.30206636, 0.11474341, -0.87559325, -0.77731127, -0.122498296, -0.26216382, -0.1961461, -0.19258545, -0.023858437, -0.0029649092, -0.02923968, -0.052724186, 0.016816145, 0.0070842626, 0.012389161, 0.06188547, -0.0042641615, 0.05317087, 0.13283059, 0.18050352, 0.12932526, 0.10853307, 0.06990774, 0.07980419, 0.19883275, 0.32503062, 0.50179845, 0.5054703, 0.46509767, -0.61919606, -0.8870981, -1.364336, -0.6215791, -0.8030559, -0.5453209, -0.06317792, 0.049445864, 0.1520258, 0.093476005, 0.14876598, 0.1585709, 0.0731612, 0.037667416, 0.055775963, 0.08005336, 0.13499378, 0.17218724, 0.14393634, 0.15295151, 0.16848217, 0.11279228, 0.13127573, 0.1809719, 0.3735874, 0.5894853, 0.6188405, 0.54179245, -0.2514471, -0.96646905, -0.7554485, -0.50557655, -0.9445408, -0.6205721, -0.21594705, -0.058002576, 0.0708787, 0.1264883, 0.16116029, 0.19401227, 0.010245021, -0.034034822, -0.06358305, -0.07206153, -0.054359496, -0.044626392, 0.034921523, 0.12330758, 0.19436309, 0.16821527, 0.1384992, 0.2437431, 0.5154345, 0.62951803, 0.51102984, 0.3042053, -0.123352624, -0.6841359, -0.38566917, -0.9864045, -0.91214746, -0.5580068, -0.20767836, -0.14603344, 0.03646198, 0.14399993, 0.261941, 0.3482299, 0.23059966, 0.03986985, -0.019379046, -0.17629632, -0.22319514, -0.23373097, -0.18764737, -0.19082989, -0.055037837, 0.06308789, 0.07909956, 0.20584185, 0.5589888, 0.78498405, 0.60043037, 0.4803429, -0.2263881, -0.6884074, -0.50596285, -0.92548215, -0.53114706, -0.38284394, -0.19048065, -0.031436067, 0.20042628, 0.22580612, 0.3224643, 0.325825, 0.27906194, 0.2249544, 0.1480318, -0.09259674, -0.20339641, -0.31807572, -0.36744657, -0.39320508, -0.31750482, -0.15493253, 0.011407102, 0.29494277, 0.7251513, 0.95978093, 0.90629363, 0.6593297, -0.13721424, -0.19214593, -0.11097949, -0.49316627, -0.3604646, -0.17769706, -0.010976368, 0.18917488, 0.38758177, 0.31671035, 0.22802296, 0.3054548, 0.30487028, 0.26073194, 0.24059823, 0.07955334, -0.032099888, -0.19844069, -0.35134834, -0.5487856, -0.6838286, -0.6386172, -0.6684846, -0.2309293, 0.47357118, 0.85909337, 0.8833048, 0.7878125, -0.33014864, -0.055586427, -0.06741692, -0.60576415, -0.46628514, 0.13296336, 0.09457644, 0.23113723, 0.28863642, 0.2393386, 0.23861618, 0.30078492, 0.3939563, 0.32256904, 0.20144229, -0.020656716, -0.21767148, -0.3516719, -0.36278048, -0.4307025, -0.5983289, -0.8804231, -1.2534816, -1.1346025, -0.47573915, 0.16388112, 0.6638849, 0.6673014, 0.005141315, -0.37243363, -0.6156055, -0.9546461, -0.22953194, 0.10960407, 0.1913244, 0.24666658, 0.18051052, -0.020062, 0.0728998, 0.2382641, 0.36661837, 0.28177607, 0.16300681, -0.177231, -0.35041282, -0.45502907, -0.44979537, -0.33380294, -0.25291333, -0.3804647, -0.6880009, -0.92930967, -1.0536613, -0.7109378, -0.055538688, 0.47860676, 0.060716424, -0.6371896, -0.7435683, -0.41338688, -0.058097403, -0.038812183, -0.019273452, 0.13406056, 0.039552458, -0.0099008465, 0.090926945, 0.1799169, 0.21020563, 0.15727596, 0.009885921, -0.2327644, -0.37701514, -0.38991693, -0.35175526, -0.20054619, -0.191062, -0.15360922, -0.18529384, -0.3428938, -0.6137191, -0.6271676, -0.32603362, -0.28936243, -0.38270646, -0.7454127, -0.6086246, 0.022025218, 0.10063965, -0.1568956, -0.1588843, -0.22416587, -0.014907025, 0.13620463, 0.18843147, 0.16300437, 0.08820243, 0.06353391, -0.16253683, -0.3109923, -0.40344155, -0.28445715, -0.1896408, -0.19625418, -0.16089529, -0.17464738, -0.06676546, -0.08767286, -0.113930315, -0.19391103, -0.32184115, -0.44463718, -0.81130093, -1.0337751, -0.27855536, 0.51143, 0.27286804, 0.03105522, -0.11881324, -0.29006225, -0.34767535, -0.08831596, 0.06657369, 0.10142419, -0.0019026522, -0.1021942, -0.32125235, -0.40028116, -0.35091734, -0.28604296, -0.071364686, -0.0027182465, -0.095012136, -0.11325543, -0.04889438, 0.018781735, 0.049036615, -0.06615884, -0.277478, -0.39007694, -0.7132118, -0.60132873, -0.009076785, 0.61014366, 0.42241418, 0.24675977, 0.17267445, -0.0075559462, -0.35969278, -0.45881796, -0.2371436, -0.14850008, -0.3259156, -0.2716513, -0.31807718, -0.21740372, -0.14222352, -0.11468685, -0.0500885, -0.030247902, -0.005237039, -0.025052374, -0.0017234342, -0.000481832, 0.0926547, -0.072761245, -0.30520427, -0.38807184, -0.022651015, -0.79736376, 0.16928068, 0.24176759, 0.27500758, 0.1780387, 0.3389397, 0.19983293, -0.01790769, -0.23394339, -0.23178315, -0.2924557, -0.24756694, -0.19765946, -0.25744826, -0.115155175, -0.10748223, -0.094649546, -0.032266393, 0.058752228, 0.120285414, 0.010213933, -0.022945382, 0.053657867, 0.15346749, -0.074939705, -0.33180016, -0.30137083, -0.26466513, -0.066439286, -0.01631902, 0.36170703, 0.43298894, 0.15090238, 0.21369407, 0.18417603, 0.12209374, 0.034286458, -0.02748554, -0.055223566, -0.14803322, -0.13734822, -0.010357157, -0.07643901, -0.12166381, -0.07729029, 0.030364443, 0.08799191, 0.043005787, 0.032899838, -0.06353409, 0.11835909, 0.123759866, -0.066229835, -0.25804928, -0.21779142, -1.0600255, -0.33793488, -0.067481525, 0.12299664, 0.2655993, 0.19628422, 0.123242766, 0.05977434, 0.08057746, 0.025451377, -0.05384532, 0.0040951497, -0.08630459, -0.1520371, -0.0662418, -0.07713059, -0.048820373, 0.020730855, 0.10039321, 0.037899505, 0.015215356, 0.058689356, 0.07374268, 0.11366854, 0.15443996, 0.000976668, -0.041285697, -0.28913653, -0.85737014, -0.14333478, 0.5377839, -0.060242422, 0.10252398, 0.037257496, -0.022238577, 0.00031000085, 0.028253427, 0.021014968, -0.0718168, 0.012656158, 0.038149405, 0.024578743, -0.048065826, -0.05128737, 0.028112985, 0.06668237, 0.10230447, 0.07060419, 0.07259331, 0.10108856, 0.1564381, 0.15888129, 0.2014357, 0.11138671, 0.07678172, -0.20033698, -0.30381495, 0.27430058, 0.2327125, 0.16556433, 0.36885217, -0.06235377, -0.11843249, -0.06678279, -0.015470448, 0.016593996, -0.014607234, -0.009140787, 0.08368123, 0.08850165, 0.012618095, -0.036621306, 0.043456424, 0.079836026, 0.06470356, 0.016678492, 0.035321105, 0.08911509, 0.15105842, 0.12788446, 0.3218047, 0.30692557, 0.22459222, -0.066433795, -0.19683659, 0.2449634, 0.36202657, 0.0071942336, 0.28021938, 0.17229538, -0.12947503, -0.10821545, -0.029190334, 0.085688196, 0.15327092, 0.070135266, 0.09656113, 0.10399159, 0.079233944, 0.11408094, 0.08964306, 0.02519698, -0.037661374, 0.017001154, 0.04680795, 0.07450735, -0.052904885, 0.11990574, 0.21746433, 0.16104037, 0.13244516, -0.39413664, -0.06156452, 0.09206604, -0.18445833, -0.08466536, 0.032272816, 0.29386365, 0.035494324, -0.07916439, -0.077187605, 0.06439288, 0.20260213, 0.17457685, 0.20384274, 0.17908129, 0.14318117, 0.14711955, 0.1608389, 0.12229277, 0.06281804, 0.04604302, -0.024491668, -0.047471974, 0.034859713, 0.17927785, 0.1602802, 0.18864502, 0.039469376, -0.29103208, -0.037301578, -0.11680725, -0.061135694, 0.25173348, 0.07389429, -0.0741261, -0.12558416, -0.2938031, -0.431455, -0.119880415, 0.13367537, 0.07695103, 0.08256063, 0.15018138, 0.19598089, 0.20675078, 0.23056816, 0.06961845, 0.08016319, 0.0008067874, -0.0580629, -0.0028360183, 0.20023198, 0.25821036, 0.22937381, 0.12489432, -0.11645263, -0.28215513, -0.008066914, -0.035571836, -0.16787876, 0.05960033, -0.0346452, -0.29679742, -0.42553452, -0.44669917, -0.49348494, -0.483211, -0.21343058, -0.22327198, -0.06657937, -0.047142617, -0.045590367, 0.0033236824, 0.34212473, 0.20232897, -0.016696222, -0.07943804, -0.13056937, 0.018269291, 0.14639576, 0.33005932, 0.36716926, 0.22514391, 0.067694664, -0.18616472, 0.024105038, 0.0015890105, 0.0448572, -0.11361865, -0.39743415, -0.7823502, -0.6653759, -0.16617861, -0.70800376, -0.7810222, -0.37925783, -0.3345107, 0.022916187, 0.038567156, -0.23738612, -0.19623172, 0.21056601, -0.07645063, -0.30047345, -0.35306215, -0.22096011, 0.07920206, 0.22685334, 0.09372143, 0.20259626, 0.16434361, 0.083261676, -0.027766988},
  {0.072313234, -0.0080393, 0.07108393, 0.04340629, 0.5158688, 0.48070592, 0.12182427, 0.048971973, 0.33495888, 0.13256706, 0.17595467, 0.29484692, 0.18040226, 0.16672006, 0.09408892, 0.28388643, 0.16915901, 0.1402172, 0.19838886, 0.16224101, 0.21888939, 0.22945309, 0.25676614, 0.2765213, 0.20794493, 0.20154545, 0.092607565, -0.006878402, 0.1464486, -0.007979751, 0.68924046, 0.08896547, 0.68820655, 0.62289125, 0.31593692, 0.2137205, 0.6435798, 0.30816048, 0.37357193, 0.36976585, 0.20397961, 0.28368688, 0.24295516, 0.27363375, 0.28005123, 0.3361275, 0.40354678, 0.52403545, 0.43232918, 0.29337475, 0.26287898, 0.3374161, 0.27359036, 0.22234818, -0.06930462, -0.0036610754, 0.045215808, 0.27745795, 0.12387083, 0.24770752, 0.35573116, 0.2976896, 0.3731488, 0.59113973, 0.5560233, 0.44756153, 0.49950707, 0.40380257, 0.4087878, 0.32740602, 0.26778305, 0.23103218, 0.21877392, 0.262821, 0.43623978, 0.47138715, 0.46177667, 0.43812928, 0.38449132, 0.43346637, 0.3173524, 0.0993722, 0.062084835, 0.031690832, -0.22406054, 0.39293054, 0.25837407, 0.2663154, 0.15376101, 0.17411606, 0.2286897, 0.24042732, 0.13279164, -0.0036852728, 0.11652955, 0.113267474, -0.0063936687, 0.026405808, 0.16856433, 0.1552699, 0.027019441, 0.041886836, 0.085679255, 0.11733566, 0.10447288, 0.22491816, 0.311552, 0.39366713, 0.21556205, -0.20313446, -0.1847503, 0.052642383, 0.0013815043, -0.3292277, -0.06879974, -0.1417672, 0.021136066, -0.21028742, -0.048751105, -0.08463702, -0.1350559, -0.15073515, -0.044572107, -0.20552821, -0.2856008, -0.20422703, -0.11581356, -0.025714023, -0.017251235, -0.037651826, 0.025093958, 0.020078326, 0.10790674, 0.140788, 0.25298598, 0.24896815, 0.14745227, -0.13932644, -0.28253865, -0.16516699, 0.29892975, -0.32022396, -0.19626844, -0.33919808, -0.22638774, -0.1583488, -0.20009798, -0.166197, -0.16544367, -0.12343222, -0.107079946, -0.33283287, -0.35808206, -0.19623841, -0.17848383, -0.1578826, -0.12001048, 0.038007513, 0.04939699, 0.06417986, -0.002729138, 0.02343958, 0.16208836, 0.1980934, 0.035388798, -0.16609782, -0.16821574, -0.023013828, -0.22802179, -0.27600947, -0.68900526, -0.384399, -0.23685345, -0.26582852, -0.29247767, -0.22601475, -0.18799667, -0.13203019, -0.09870708, -0.24620183, -0.24176133, -0.3562913, -0.26370457, -0.1767457, -0.15196171, -0.14547393, -0.11217536, 0.009297452, -0.075856276, -0.10448411, -0.041730512, 0.08500436, 0.108121775, 0.049905207, -0.044414427, 0.03889243, -0.27061605, -0.61618984, -0.59212726, -0.5911851, -0.2622606, -0.21552888, -0.283463, -0.24586399, -0.14537162, -0.07933071, -0.1381507, -0.15775564, -0.23072849, -0.24537008, -0.22232372, -0.24681596, -0.2501475, -0.25227362, -0.13696979, -0.16456674, -0.22093107, -0.21028157, -0.1580893, -0.12625216, -0.012346516, 0.032373816, -0.2212675, -0.21246281, -0.15491545, -0.613172, -0.56194645, -1.0022464, -0.094666064, -0.09600616, -0.3019552, -0.3000152, -0.10716995, -0.21078974, -0.26251495, -0.25598198, -0.25410175, -0.32339942, -0.26601228, -0.34815332, -0.35336766, -0.39090505, -0.352146, -0.44877234, -0.38198468, -0.29526237, -0.36804456, -0.56238425, -0.40135655, -0.30321547, -0.38757414, -0.4169088, -0.15722062, -0.36836004, -0.5954681, -0.49035242, -0.20976245, -0.15435016, -0.28558657, -0.15243317, -0.09392989, -0.2190167, -0.28253955, -0.22230755, -0.1812093, -0.3008853, -0.27067032, -0.29317328, -0.33558542, -0.44455147, -0.5969387, -0.5476372, -0.3792634, -0.35873994, -0.40857753, -0.662717, -0.5689224, -0.59746337, -0.6748489, -0.8821153, -0.68807894, -0.424914, -0.36813384, -0.39168355, -0.15201384, -0.18762495, -0.29852945, -0.14953074, -0.06272272, -0.08153356, -0.18507594, -0.09279585, -0.1648571, -0.2953678, -0.15770037, -0.18520294, -0.39765933, -0.53111875, -0.64943796, -0.48130497, -0.25471273, -0.21007001, -0.33969676, -0.36488155, -0.3038176, -0.38890877, -0.74213696, -1.0630708, -0.081450194, -0.7346907, -0.83298093, -0.7801158, -0.34015864, -0.2327645, -0.20748676, -0.1266185, -0.0116289975, 0.025377477, -0.050688937, -0.06726431, -0.23213552, -0.12858674, -0.072284855, -0.3046162, -0.43077305, -0.38207948, -0.42752352, -0.33906728, -0.11370216, -0.077014826, -0.16594581, -0.12391056, -0.1103194, -0.21700923, -0.4512784, -0.8518168, -0.36896458, -0.4502229, -0.9303647, -0.9680544, -0.16329819, -0.14547391, 0.0078869285, 0.0030785878, 0.0399063, -0.0321939, -0.04498538, -0.094382316, -0.14569755, -0.0024967296, -0.12270533, -0.34006366, -0.26573908, -0.13957733, -0.24223214, -0.20718586, -0.092454724, 0.10177384, 0.21459045, 0.28369692, 0.25363532, 0.0153281195, -0.3575318, -0.7398122, -0.48306566, -0.31441718, -0.75544876, -0.7498542, -0.019059166, 0.05399295, 0.07397243, -0.06699695, -0.0031011319, -0.024991991, -0.080066144, -0.087694354, -0.0058504143, 0.04422162, -0.18334731, -0.316933, -0.13384597, -0.09047542, -0.22063702, -0.103431076, -0.0346213, -0.002458014, 0.20319925, 0.4443784, 0.44701716, 0.12170398, -0.38155273, -0.4976213, -0.17280543, -0.37546518, -1.0164659, -0.7508815, -0.53811073, -0.040548276, 0.044637546, 0.0024303135, -0.011212233, 0.033484682, 0.07535133, 0.12711042, 0.1330341, 0.07332404, -0.028584758, -0.067831576, -0.046455886, -0.12093065, -0.2147657, -0.10409296, -0.032398988, 0.15156472, 0.22055168, 0.381736, 0.4719309, 0.12172188, -0.26845, -0.5134632, -0.096475616, -0.70791566, -0.70254546, -0.84086955, -0.8501844, -0.06840506, 0.11767653, 0.12375309, 0.06364047, 0.13703007, 0.13359742, 0.24742025, 0.19956268, 0.1731804, 1.4225952e-05, -0.052904308, 0.074777916, -0.033494618, -0.15844779, -0.067582116, 0.053915024, 0.18350953, 0.1404649, 0.2063321, 0.26517585, 0.06864968, -0.23893017, -0.4760028, -0.1352301, -0.5159667, -0.7210698, -0.6616585, -0.97071683, -0.14800276, 0.13598268, 0.2139086, 0.19734487, 0.22288065, 0.30928725, 0.3299052, 0.29347068, 0.16004017, 0.008676731, 0.10538466, -0.017081881, -0.050636616, -0.091645755, 0.0035446587, 0.1255871, 0.15686123, 0.10715948, 0.13170937, 0.09551888, 0.03132434, -0.25923523, -0.5629975, -0.12594867, -0.2394794, -0.3916309, -0.77345735, -0.9442192, -0.34325907, 0.060419593, 0.12001253, 0.2131138, 0.22628899, 0.36719635, 0.37682244, 0.19682424, 0.037569888, 0.077357516, 0.043554366, -0.04240941, -0.1134105, 0.04672069, 0.121151336, 0.16311899, 0.1122285, 0.082141384, 0.06514255, 0.034872256, 0.03524985, -0.21790788, -0.42931715, -0.04592942, -0.50334907, -0.08835233, -0.512081, -0.8557792, -0.56770754, -0.057644084, 0.10342251, 0.1786161, 0.22147572, 0.33094847, 0.5048936, 0.40689224, 0.235048, 0.15696453, 0.14338957, 0.10394048, 0.106778994, 0.19883277, 0.252595, 0.109454244, 0.10021542, 0.13619508, -0.0340929, -0.047015995, -0.06408102, -0.15510567, -0.35819787, -0.50211895, -0.58208704, -0.1798549, -0.46702677, -0.54466254, -0.6167686, -0.28155643, 0.08421646, 0.12947917, 0.20772241, 0.2837856, 0.41826665, 0.41871884, 0.2917504, 0.2576661, 0.23605493, 0.23181458, 0.14325781, 0.21969321, 0.13899118, 0.12129266, 0.18386944, 0.11627816, -0.13842057, -0.096025266, -0.06849706, -0.11827163, -0.19380529, -0.42809096, -0.36697298, -0.4434539, -0.5373526, -0.64447296, -0.643399, -0.26047343, -0.004408362, 0.11199324, 0.073517755, 0.2374056, 0.38430023, 0.46791276, 0.42358544, 0.3846482, 0.39282778, 0.22978464, 0.19165015, 0.18163343, 0.16067667, 0.103029706, 0.10111604, -0.020855065, -0.05686175, -0.16194168, -0.123117834, -0.16281661, -0.048396967, -0.33868486, -0.5212908, -0.47847426, -0.42778045, -0.4960032, -0.73520213, -0.519218, -0.11805304, 0.019724905, 0.030035222, 0.2288953, 0.30626038, 0.40650254, 0.4078748, 0.35424122, 0.2423684, 0.121391565, 0.076481216, 0.09289369, 0.036416076, 0.055176295, -0.008775725, -0.007295191, -0.104950406, -0.2825922, -0.2730857, -0.13086055, 0.06749468, -0.1821355, -0.17641689, -0.528428, -0.33007798, -0.4380767, -0.7294865, -0.8814261, -0.58023584, -0.16667315, -0.000937516, 0.06711221, 0.07260216, 0.21957162, 0.28676945, 0.27019954, 0.1241885, 0.044282068, -0.0863732, -0.041338198, 0.018438239, 0.036271077, -0.07543947, -0.08923879, -0.103938326, -0.306156, -0.28832066, -0.30327234, -0.0030475731, -0.08876463, -0.1215386, -0.37073034, -0.2616105, -0.25685623, -0.5265007, -0.72301954, -0.80061585, -0.32630327, -0.242978, -0.28510013, -0.16326265, -0.032166265, 0.056855313, 0.008920094, -0.032963652, -0.06703786, -0.102013275, -0.10159196, -0.14248005, -0.21228847, -0.20774826, -0.075845286, -0.3462248, -0.5070017, -0.3928568, -0.2792228, -0.15191686, -0.07511774, -0.0848381, -0.25040507, -0.095274866, -0.154449, -0.5161479, -0.660356, -0.6069757, -0.50723034, -0.405318, -0.42166966, -0.4418374, -0.48611218, -0.5414871, -0.40718377, -0.25662363, -0.23290677, -0.3883397, -0.3358915, -0.3458679, -0.19460835, -0.15193859, -0.09441657, -0.36462325, -0.45195496, -0.46715236, -0.16849415, 0.03159199, -0.04703441, -0.085151605, -0.13995713, -0.08569705, -0.2208246, -0.39666453, -0.36905026, -0.45096222, -0.5995287, -0.5310479, -0.435489, -0.63865983, -0.6802149, -0.59758455, -0.54485846, -0.5612259, -0.54743004, -0.41554484, -0.3125276, -0.43149495, -0.41214976, -0.31102356, -0.2648857, -0.3778754, -0.45874107, -0.29843688, -0.15695514, -0.076484166, 0.016903039, -0.073502235, -0.06908779, -0.07372428, -0.18162489, -0.13462605, -0.22296837, -0.31469864, -0.36601892, -0.35886145, -0.33470225, -0.5123901, -0.31834137, -0.2690227, -0.57298696, -0.6787758, -0.6376372, -0.50322604, -0.3632686, -0.36607063, -0.23327358, -0.25883663, -0.27577856, -0.3932115, -0.23212808, -0.12934108, -0.16726732, -0.046582457, -0.00684593, 0.016233888, -0.038956866, -0.042719137, -0.15096211, -0.31928056, -0.12163573, -0.1501505, -0.1742392, -0.23189902, -0.21108055, -0.20564245, 0.029883694, -0.13965811, -0.32728633, -0.3588007, -0.30748904, -0.24103096, -0.24590075, -0.283227, -0.20705329, -0.15826762, -0.21218042, -0.21044901, -0.1234061, -0.15301079, -0.1449419, 0.034581847},
  {0.028191261, -0.003914463, 0.035207745, -0.010764396, -0.14336689, -0.15731053, -0.0919285, -0.13603714, -0.11080355, -0.38856715, -0.45511454, -0.20264813, -0.19463038, -0.29267102, -0.20978117, -0.16384715, -0.14470257, -0.17274137, -0.20904006, -0.13485548, -0.12622705, -0.0811336, -0.10911755, -0.0515346, -0.050179895, -0.087850705, -0.08273856, 0.0025639662, 0.00208792, -0.013861729, -0.015862336, -0.037361953, -0.42357692, -0.28829166, -0.18535833, -0.18270408, -0.2936729, -0.35843265, -0.5767667, -0.47093603, -0.5362998, -0.4599488, -0.37389082, -0.22960949, -0.17715919, -0.18177286, -0.1903237, -0.18884078, -0.17247273, -0.17422654, -0.11249389, -0.1873247, -0.096846655, -0.0980791, -0.09268424, -0.014787464, 0.027945504, -0.2422044, -0.30146968, -0.3098185, -0.41910976, -0.42052454, -0.4020049, -0.23304157, -0.30607343, -0.40271562, -0.52148134, -0.63719964, -0.72208494, -0.5752834, -0.29139328, -0.29738507, -0.3257982, -0.24798514, -0.22991744, -0.23760207, -0.17377175, -0.20763241, -0.18084829, -0.21540314, -0.17326911, -0.13069722, -0.12869754, -0.058468264, -0.00020880772, 0.16244557, -0.33073893, -0.28910324, -0.04174885, -0.20737235, -0.225073, -0.25971743, -0.29744506, -0.34583548, -0.55484617, -0.70229185, -0.7772875, -0.60352963, -0.47359586, -0.46468014, -0.4064518, -0.40139985, -0.33457482, -0.2727961, -0.26343748, -0.28507128, -0.36573666, -0.27523106, -0.32642385, -0.28783035, -0.20794311, -0.13972218, -0.27318612, 0.11910586, -0.12015866, 0.48437366, -0.106940806, -0.19014235, 0.01896064, -0.15699989, -0.26947355, -0.37614837, -0.5013397, -0.5333114, -0.34217134, -0.28317216, -0.46930692, -0.5449753, -0.58553094, -0.5456863, -0.4137887, -0.2865811, -0.30368125, -0.29107472, -0.28069514, -0.31331226, -0.2851032, -0.4036777, -0.29457393, -0.21343681, 0.25362322, 0.23938355, -0.015777614, 0.40674755, 0.24284852, 0.23914869, 0.30068368, 0.2645445, 0.36709815, 0.3871905, 0.18838541, 0.09833879, 0.13477682, 0.13637073, -0.04880292, -0.166975, -0.20759639, -0.21212646, -0.29350105, -0.371035, -0.42402765, -0.33455285, -0.1408732, -0.20027186, -0.22315265, -0.40237772, -0.25760585, -0.1535888, 0.3011734, 0.6385143, 0.3718668, 0.22446096, 0.14382719, 0.2063679, 0.22643231, 0.15773582, 0.23828986, 0.35188895, 0.30076286, 0.24231465, 0.1260393, 0.08747857, 0.045843516, -0.035497617, -0.12331296, -0.10914274, -0.09858534, -0.03751951, -0.014238805, 0.10104377, 0.07000599, -0.13825244, -0.31506854, -0.15027437, -0.14997442, -0.26827312, 0.34878764, 0.48106134, 0.07545344, 0.35221633, 0.26336086, 0.12813927, 0.14762834, 0.19708127, 0.28555882, 0.29794893, 0.2665033, 0.24079584, 0.17626865, 0.0956902, 0.047309577, 0.042038012, 0.116738044, 0.11482696, 0.16701856, 0.16447666, 0.18227902, 0.18307903, 0.12941256, -0.053613335, -0.15309767, -0.3439504, -0.54565483, -0.574602, 0.23355435, 0.58197314, 0.2549928, 0.4565627, 0.2904822, 0.24341512, 0.32889265, 0.3907099, 0.3453787, 0.26019636, 0.20159596, 0.21153162, 0.23399465, 0.21791951, 0.14904258, 0.14334396, 0.20443925, 0.26416457, 0.24009542, 0.25462052, 0.23156139, 0.13964027, 0.09896409, 0.043821353, -0.2531234, -0.38171935, -0.4166115, -0.22389804, 0.716861, 0.5423688, 0.803059, 0.6047128, 0.4470144, 0.33328, 0.30610445, 0.3093293, 0.20708871, 0.20643115, 0.22294116, 0.18232055, 0.28945643, 0.23162954, 0.18605271, 0.25870407, 0.3354461, 0.34658343, 0.32174125, 0.25650433, 0.18757938, 0.14925715, 0.16821021, 0.05115006, -0.13293387, -0.20788902, -0.1408733, -0.09543781, 0.6669058, 0.4543903, 0.38175282, 0.3197408, 0.38212, 0.28980905, 0.25223926, 0.18094951, 0.07996597, 0.13930735, 0.050432462, 0.11120261, 0.19153276, 0.26879185, 0.31470084, 0.36626363, 0.3124149, 0.30599505, 0.33381665, 0.24788506, 0.22192585, 0.16360775, 0.11626554, 0.020944767, -0.21861465, -0.40323097, -0.27816954, -0.49032888, 0.6060563, 0.38131547, 0.36606207, 0.5062309, 0.30638847, 0.20413303, 0.12148815, 0.008276004, -0.05013269, -0.080869295, 0.035470165, 0.041033894, 0.013774887, 0.049136456, 0.11872974, 0.24510948, 0.26902872, 0.2695981, 0.31170222, 0.22387613, 0.17545219, 0.21308444, 0.10722073, -0.040008236, -0.40188083, -0.45669442, -0.27478746, -0.08886579, 0.48025864, 0.6290056, 0.65540653, 0.7157012, 0.38252026, 0.24429654, 0.07944125, 0.030923055, -0.09983019, -0.12570788, -0.13429466, -0.08934678, -0.2588944, -0.41031152, -0.2707729, 0.017192418, 0.14647458, 0.17392765, 0.16658726, 0.10640962, 0.012768621, 0.0713592, 0.07156013, -0.16661488, -0.5011115, -0.26362678, 0.14594826, 0.0431786, 0.5716284, 0.87347627, 0.6307581, 0.7122977, 0.3742772, 0.07092992, -0.11792166, 0.01339013, 0.049367443, 0.015529528, -0.114542015, -0.19487743, -0.47355434, -1.0170332, -0.67434955, -0.15082902, 0.025285868, 0.15393625, 0.14343227, 0.06518162, -2.2657914e-05, 0.0648855, 0.06620042, -0.2023423, -0.26476166, 0.0010319422, 0.22379066, -0.17848407, 0.3073437, 0.5838616, 0.8937632, 0.602719, 0.40975368, -0.07828445, -0.21624859, -0.012345323, -0.06443867, -0.14168093, -0.1039076, -0.20044838, -0.72943616, -1.0027634, -0.60855025, -0.10505763, -0.026328685, 0.2567362, 0.31409255, 0.20503962, 0.19086435, 0.24225786, 0.176455, -0.058634672, -0.1316233, 0.011322921, -0.10925312, -0.4012732, -0.04365841, 0.23602267, 0.6456401, 0.13508987, 0.22370747, -0.10525505, -0.12341019, 0.022970749, -0.12537898, -0.18189567, -0.20586601, -0.35938704, -0.81610054, -0.9240694, -0.39556625, -0.065723434, 0.01486382, 0.22409365, 0.38120803, 0.3801664, 0.29581788, 0.28766558, 0.18043481, -0.044253178, -0.0851007, -0.3227316, -0.595268, -0.6511662, -0.2408887, -0.20102455, 0.08204645, -0.2543043, -0.084169336, -0.16806437, -0.03420924, 0.12009252, 0.033103757, -0.17639197, -0.23183312, -0.42318118, -0.7253507, -0.6077229, -0.19992214, -0.14441335, -0.028635118, 0.16060852, 0.34596813, 0.29395446, 0.23106931, 0.25727436, 0.185802, 0.031798102, -0.19111025, -0.43079725, -0.50350356, -0.5860542, 0.14731309, 0.3075869, -0.03715516, -0.2676516, -0.25910667, -0.12529701, -0.113836735, -0.046221197, -0.077209525, -0.15103213, -0.24560556, -0.49400735, -0.5052932, -0.29955316, -0.07414275, -0.08109548, 0.032897107, 0.0945311, 0.12540047, 0.08593575, 0.03652607, 0.089479074, 0.057763416, -0.08388223, -0.23651253, -0.3717263, -0.34371397, -0.30206954, 0.31506947, 0.16401522, 0.21479103, -0.10580525, 0.06527384, 0.065234266, -0.009575595, -0.096127935, -0.20124292, -0.30059272, -0.36225107, -0.5339177, -0.2993735, -0.1338105, -0.1155869, -0.04948301, 0.0064175487, 0.010484004, -0.035923768, -0.03038086, -0.1542053, -0.083585046, -0.08397992, -0.3283098, -0.28728956, -0.21899846, -0.03223412, -0.11676141, 0.38624257, 0.27680543, 0.23453245, -0.12391102, -0.019629333, -0.081465386, -0.15928277, -0.3871943, -0.47484225, -0.47389165, -0.44628567, -0.4115889, -0.1864076, -0.053551134, -0.026598835, -0.002816005, -0.14976236, -0.24025406, -0.19269449, -0.16629265, -0.26122403, -0.2179936, -0.21796338, -0.363199, -0.34739992, -0.44421324, -0.2974218, -0.08769754, -0.25642756, -0.14350209, 0.3266598, -0.09462575, -0.18702607, -0.31561494, -0.5054362, -0.6090885, -0.37486777, -0.30125302, -0.3613708, -0.25360438, -0.10373938, -0.005172577, -0.053619727, -0.026532909, -0.25465146, -0.36274493, -0.3934642, -0.36350283, -0.40418178, -0.35153297, -0.34463084, -0.4784313, -0.31105697, -0.29215968, -0.2649597, -0.26206768, -0.7384865, -0.17549114, 0.19234814, -0.17703347, -0.35829252, -0.45927775, -0.5302056, -0.42871162, -0.3373467, -0.21403386, -0.23801604, -0.23513103, -0.13193311, -0.0853117, -0.06777093, -0.048690725, -0.16520065, -0.32974517, -0.36185858, -0.45003614, -0.4298587, -0.41085532, -0.45049956, -0.581816, -0.46598414, -0.3645839, -0.2411968, -0.30539572, -0.7712007, -0.5168103, 0.19454198, 0.043942116, -0.074989215, -0.10128954, -0.2169972, -0.1711068, -0.12115536, -0.25138885, -0.257401, -0.1530491, -0.22010362, -0.109022975, -0.18202299, -0.050908323, -0.15243967, -0.21707308, -0.33828026, -0.3992504, -0.4746173, -0.44100502, -0.52096856, -0.6622768, -0.5210409, -0.3589263, -0.14909829, -0.3558895, -0.2558708, 0.1216661, 0.39241716, 0.087565266, -0.01583705, 0.21127479, 0.2570668, 0.2127451, 0.09292837, -0.23133965, -0.2684528, -0.18925883, -0.20968898, -0.15662052, -0.1423695, -0.022359313, -0.044801068, -0.1957486, -0.3795764, -0.3440153, -0.38252267, -0.3875431, -0.37217647, -0.60019624, -0.61050576, -0.46160308, -0.3233312, -0.26188725, -0.12955743, 0.44207224, -0.07408594, -0.17923504, 0.034571387, 0.31616247, 0.30355117, 0.26688895, 0.14302488, 0.017509801, -0.089094654, -0.08911345, -0.041802373, -0.027294518, -0.08245908, 0.028595641, -0.034050457, -0.19713455, -0.17627141, -0.23700394, -0.21218036, -0.28290468, -0.17355837, -0.23804197, -0.49597535, -0.33887625, -0.20466603, -0.20467351, -0.2582525, -0.13075942, -0.6183997, -0.29034045, -0.028263774, 0.03503811, 0.2178017, 0.2380845, 0.3423572, 0.3201709, 0.2791335, 0.21662997, 0.2217401, 0.21337146, 0.16669631, 0.15980417, 0.049723446, 0.04880897, 0.10269458, 0.048727248, -0.019642562, -0.079245836, -0.16743878, -0.35475263, -0.4289315, -0.16962834, -0.19414136, -0.17642403, 0.0076138848, -0.10153715, -0.30434778, -0.15665549, 0.14693089, 0.14840303, 0.27710184, 0.3240063, 0.45595527, 0.5796223, 0.39283738, 0.3024066, 0.49118614, 0.30941975, 0.39632964, 0.4732177, 0.26038784, 0.18242568, 0.385899, 0.3782278, 0.051001675, 0.13109252, 0.11036755, -0.018501427, -0.06104838, 0.0824273, -0.045273498, -0.128072, 0.02509712, -0.031665064, -0.081161566, 0.2056313, 0.39990044, -0.08857095, 0.05913945, 0.085449815, 0.30900192, 0.414325, 0.24563447, 0.35227117, 0.35857207, 0.32093924, 0.36324066, 0.47617054, 0.3718679, 0.30240145, 0.4212399, 0.5241957, 0.19649151, 0.19632319, 0.196287, 0.08865868, -0.079288855, -0.21014066, -0.044928763, -0.009485531},
  {0.021689216, 0.0010434602, 0.010272109, 0.020080933, -0.018092545, -0.08335411, -0.19452862, -0.10425935, -0.11581833, -0.15388365, -0.18687895, -0.17015114, -0.23005347, -0.2689317, -0.20091318, -0.32033753, -0.21378715, -0.19430211, -0.23672447, -0.19887039, -0.21186075, -0.21053962, -0.11452193, -0.1515463, -0.09195816, -0.12404188, -0.13401692, 0.008368012, -0.001026971, -0.016583806, -0.30499458, -0.1763708, -0.1879301, -0.11687238, -0.11181836, -0.23452595, -0.4994409, -0.48867288, -0.4359566, -0.43648237, -0.4648829, -0.40998146, -0.52069503, -0.21435563, -0.27269936, -0.48906815, -0.34148467, -0.43221903, -0.23595123, -0.24379715, -0.26859292, -0.11185349, -0.13467076, -0.1402404, -0.2879568, -0.11595598, 0.059011545, -0.07276735, -0.16795592, -0.1652078, -0.05622331, -0.35562593, -0.32127252, -0.52608454, -0.5879363, -0.6478186, -0.6986294, -0.62864536, -0.6242209, -0.434299, -0.43251684, -0.3936297, -0.21678963, -0.30276024, -0.18916827, -0.16666928, -0.2748617, -0.19199067, -0.13957267, -0.049928226, -0.1347292, -0.10599263, -0.15398932, -0.12271177, -0.04444693, -0.3620713, -0.21074213, -0.48074985, -0.4246532, -0.3076872, -0.46681064, -0.77299845, -0.91285425, -0.6955153, -0.3773458, -0.38185066, -0.2688383, -0.15888894, -0.23970701, -0.20099942, -0.09512562, -0.008319944, 0.05574938, 0.024520082, -0.041810792, -0.047319114, 0.06676832, 0.09948589, 0.06494147, 0.06067901, 0.03663379, -0.05370132, -0.17709325, -0.045961592, -0.27087805, -0.3351311, -0.49746007, 0.0023424705, -0.30852857, -0.37876466, -0.15360431, -0.08930276, -0.15036327, -0.24835807, 0.016313696, 0.08068374, 0.1843338, 0.1098406, 0.06968754, 0.03255462, 0.105127655, 0.13043402, 0.07854749, 0.086674884, 0.068194106, 0.031946454, 0.1196297, 0.08577254, 0.11807027, 0.28075805, -0.41588274, -0.55140877, -0.15824597, -0.29807377, -0.018495733, -0.3994514, -0.19834399, -0.19824785, -0.11966558, -0.017509494, 0.08063966, 0.14587191, 0.12508476, 0.17280295, 0.11288491, 0.114195585, 0.06344952, 0.09520696, 0.04523168, 0.044115067, 0.049262747, 0.11440948, -0.020719077, -0.09359841, -0.10690787, 0.10100499, 0.24781401, 0.10084473, -0.42157483, -0.35572365, -0.1571409, -0.3483307, -0.5069563, -0.36649546, -0.37387693, -0.2685759, -0.052396826, -0.068118125, -0.086590245, -0.038753614, 0.026267653, -0.059292614, -0.026111402, 0.04184813, 0.10008151, 0.013861248, -0.05412793, 0.023928607, 0.1286656, 0.10181523, -0.04426319, -0.105746634, -0.016098872, -0.0029127465, 0.1814681, -0.065069236, -0.67206424, -0.16607487, -0.21991296, -0.33608764, -0.21680802, -0.066232175, -0.1283826, -0.029636318, -0.0135479495, -0.09369551, -0.13007903, -0.107707806, -0.06319521, -0.017338386, 0.068394236, 0.07001104, 0.050808374, -0.006725006, -0.036749594, 0.023986483, 0.0382365, 0.046333477, 0.03177954, 0.041637037, 0.059665963, 0.052455433, 0.104871266, -0.11001406, -0.39823952, -0.33142173, -0.2371765, -0.3444925, -0.10169683, -0.1871112, -0.04662127, 8.783303e-06, 0.04560471, 0.071247354, 0.03352513, 0.051696885, 0.047288526, 0.0007036389, -0.07854619, 0.003290344, 0.011603841, -0.003240579, -0.13218148, 0.007346783, 0.03255919, 0.07184658, 0.11813873, 0.16666941, 0.15450346, 0.16679084, 0.22090861, 0.23628299, -0.40422207, -1.199426, -0.057737146, -0.3744761, -0.06805944, -0.09231821, -0.06228196, 0.057536494, 0.11344193, 0.21318626, 0.11421378, 0.011031536, 0.104548216, 0.0059448173, -0.18213458, -0.19526513, -0.12567276, -0.06662038, 0.010607642, 0.087277494, 0.12013698, 0.13502064, 0.15372503, 0.1506911, 0.19316745, 0.07192868, 0.21503411, 0.14484182, -0.5019697, -0.6817447, -0.26395267, -0.40676573, -0.14829871, -0.15405792, -0.016670872, 0.22410564, 0.20491904, 0.24032219, 0.24343374, 0.16816612, 0.1946219, 0.19751678, -0.022110442, -0.2383133, -0.24332964, -0.17120467, -0.020970844, 0.07607897, 0.13088101, 0.16793653, 0.12208257, 0.12589951, 0.040929046, -0.116696514, 0.06384542, 0.15263912, -0.28019363, 0.36620396, -0.3772646, -0.43079203, -0.059606727, 0.16883746, 0.16639906, 0.21703877, 0.22434105, 0.28815243, 0.21637155, 0.12362693, 0.18049778, 0.14305763, 0.090118654, -0.0360737, -0.23527351, -0.2130018, -0.01631405, 0.099422224, 0.15845269, 0.21173757, 0.25372538, 0.2385115, 0.17311786, 0.029775603, -0.06453949, -0.17770064, -0.27630025, -0.15477657, -0.5217465, -0.35485697, -0.0759297, 0.29368252, 0.15679942, 0.13162316, 0.19311094, 0.24909574, 0.107344285, -0.036297143, -0.019934459, 0.05269577, 0.17160869, 0.10669999, -0.056848843, -0.07380681, -0.024920497, 0.10313841, 0.16731891, 0.29358566, 0.40339893, 0.43341842, 0.42136443, 0.15280595, -0.05717316, -0.18011746, -0.34434846, -0.86362654, -1.315626, -0.2546336, 0.034858264, 0.19729616, 0.14357474, 0.114637874, 0.080941714, 0.08012533, -0.030253638, -0.13171479, -0.01475602, 0.058114506, 0.22468327, 0.10344335, 0.077043004, 0.029605249, 0.03133084, -0.0357633, 0.03276027, 0.1537765, 0.14067213, 0.20679633, 0.26094058, 0.13408779, 0.11196214, -0.09811013, -0.33921623, -0.6429382, -0.38196576, -0.096586175, -0.26151446, 0.21542771, 0.00316759, -0.12193733, -0.119909465, -0.19757459, -0.15533182, -0.16084625, 0.069660254, 0.1457576, 0.16573274, 0.10917146, 0.10549258, -0.008490913, -0.10074293, -0.026586017, 0.05294912, -0.013425766, -0.1497619, -0.18455617, -0.1493109, -0.067266755, -0.0932105, -0.25875002, -0.31272352, -0.53054804, -0.14242417, 0.18425867, -0.4419426, 0.107424214, -0.06980819, -0.21283244, -0.33416063, -0.27500883, -0.22123854, -0.06558669, 0.18510151, 0.24652708, 0.21426193, 0.17083406, 0.087756276, -0.046651673, -0.13328567, -0.10260086, -0.15337898, -0.20016176, -0.27526784, -0.33155215, -0.40953693, -0.2131569, -0.2556106, -0.65204144, -0.42930317, -0.43684334, -0.25356555, 0.07595424, -0.20317526, -0.3297001, -0.48282188, -0.41288972, -0.35812694, -0.12919055, -0.082721055, -0.049434617, 0.11051517, 0.21448354, 0.23109561, 0.10589258, 0.035224408, -0.10770906, -0.26122388, -0.26537615, -0.2923829, -0.25610387, -0.29332313, -0.2906898, -0.28563735, -0.14613111, -0.26449984, -0.64152414, -0.32791752, -0.69657224, 0.3095363, -0.008521932, -0.43711632, -0.5611548, -0.49017125, -0.24539839, -0.09069817, 0.02449369, 0.061469138, 0.16291983, 0.27063793, 0.22225688, 0.042805936, 0.01163735, -0.056007136, -0.0923002, -0.2341719, -0.24557689, -0.27262637, -0.33584097, -0.28061607, -0.15443125, -0.17483279, -0.19202316, -0.44484293, -0.57938045, -0.24077806, -0.9000709, 0.20441613, 0.33594093, -0.55752295, -0.5702272, -0.3592185, -0.25574607, -0.08230671, 0.04946701, 0.18985668, 0.20911518, 0.2461268, 0.08033194, -0.090592824, -0.025341922, -0.13639659, -0.14741974, -0.18868805, -0.18410863, -0.11884937, -0.124031216, -0.17706949, -0.01046763, 0.024249539, -0.06868025, -0.6581106, -0.68561697, -0.5453548, -0.61316705, -0.18554032, -0.8361056, -0.9680992, -0.39226514, -0.23982824, -0.16968152, -0.104415596, 0.032281607, 0.10170709, 0.1322437, 0.087145075, -0.10618969, -0.17302163, -0.18269463, -0.062122826, -0.096177615, -0.096265435, -0.07670672, -0.03586069, -0.03164225, -0.03270355, 0.06853754, 0.11671761, -0.119493395, -0.56597084, -0.5652461, -0.4099076, -1.0795528, -0.75887454, -1.2444942, -0.68986213, -0.12217029, 0.092159845, 0.053043332, 0.00037222926, 0.11097517, 0.046942703, -0.032003842, -0.07932475, -0.104817905, -0.20027621, -0.052366473, -0.0017013188, -0.10681537, -0.043970328, -0.0039832145, 0.12556532, 0.038652834, 0.020735305, 0.13251512, 0.119621694, -0.20067596, -0.6737075, -0.52195066, -0.8574671, -0.46741813, -0.8005382, -0.8641859, -0.40780404, -0.14608593, 0.042369653, 0.11489875, 0.025641883, 0.055032488, 0.014596676, -0.057779387, -0.029603833, -0.013190102, -0.018395016, 0.03209988, 0.04950863, -0.09031899, -0.042393953, -0.009609894, 0.014100162, 0.030718926, 0.013538475, 0.15221605, -0.045452926, -0.28382054, -0.5387979, -0.40821964, -0.6462142, -0.40253025, -0.860017, -0.6442296, -0.71682346, -0.15803131, 0.008813154, 0.14842893, 0.03783084, -0.0041293, 0.048358038, 0.05520544, 0.053624637, 0.16188736, 0.21166806, 0.1655476, 0.08421696, 0.05728304, 0.09935249, 0.06602512, 0.08776641, 0.103143804, 0.13568524, 0.120786764, 0.0026347241, -0.29778877, -0.53531, -0.39106864, -0.5589616, -0.39886287, -0.8299371, -0.75343746, -0.61894584, -0.28558376, -0.08099013, -0.0100429375, 0.044634532, 0.024576964, 0.027140362, 0.12454651, 0.19750324, 0.20219213, 0.21474135, 0.17345193, 0.03223776, 0.089834705, 0.0537463, -0.012346692, 0.0027275025, -0.016246406, 0.032205135, 0.022815594, -0.054595627, -0.37452137, -0.47468176, -0.2778079, -0.06684614, -0.30493718, -0.6454656, -0.495718, -0.5517894, -0.41260207, -0.3382286, -0.21212666, -0.13514005, 0.01343273, 0.028887572, 0.023302235, 0.16512641, 0.20778278, 0.18662052, 0.18668906, 0.14205883, 0.17056721, 0.14835615, 0.10676136, 0.026185617, -0.019332744, -0.025825987, 0.028359236, -0.14164098, -0.43682033, -0.5169877, -0.26145905, -0.20357995, -0.13984375, -0.28173956, -0.32620153, -0.47097635, -0.74737024, -0.58953893, -0.5688027, -0.43350422, -0.21684027, -0.16528676, -0.15042222, -0.05577248, -0.017917762, -0.057903975, 0.09124221, 0.23909639, 0.05607211, 0.023403727, 0.13736999, 0.090914376, -0.1815614, -0.12764974, -0.21050714, -0.33118805, -0.51914287, -0.72225416, -0.19799387, 0.029065505, -0.11615083, -0.13351788, -0.1699005, -0.38339132, -0.80203164, -0.74874353, -0.7118641, -0.64192754, -0.67411774, -0.68462735, -0.50878793, -0.5930026, -0.56199914, -0.60574085, -0.41670042, -0.17867072, -0.30695027, -0.2501185, -0.10081215, -0.18668039, -0.44406027, -0.5981615, -0.62330383, -0.54821515, -0.5988822, -0.7377343, -0.13816927, -0.03518328, -0.016259894, -0.13678418, -0.35530373, -0.503495, -0.5949753, -0.66911596, -0.54822713, -0.56970066, -0.71912915, -0.78348994, -0.49862197, -0.46578118, -0.60005575, -0.6898611, -1.062507, -1.2189529, -1.2076865, -0.53396624, -0.35308287, -0.32532907, -0.5548488, -0.68611914, -0.48880178, -0.5325743, -0.26424974, -0.45320526, -0.0052598123},
  {0.025139313, 0.012290291, 0.00776389, 0.019650597, -0.029679516, 0.0025115414, -0.060424834, -0.0871806, -0.113955915, -0.4555618, -0.4123097, -0.18513682, -0.19130361, -0.3683457, -0.22234882, -0.28421104, -0.22041026, -0.23180264, -0.23656002, -0.23221566, -0.13223562, -0.13794252, -0.12869102, -0.07198841, -0.06051985, -0.043569673, -0.025165794, -0.033104446, -0.014726251, -0.0074315076, -0.15567937, 0.013222378, -0.08037213, -0.21345899, -0.13291644, -0.18546431, -0.38521388, -0.54036635, -0.57306945, -0.4747987, -0.56019914, -0.51273596, -0.41639715, -0.3249212, -0.35641342, -0.37814182, -0.32563117, -0.27622446, -0.27138233, -0.15398236, -0.17579119, -0.18316768, -0.16043143, -0.12644042, -0.13023716, -0.01797557, -0.030541703, -0.36063144, -0.37102315, -0.4273499, -0.4136276, -0.4543935, -0.3667222, -0.39008754, -0.52730924, -0.60786647, -0.39245984, -0.5812762, -0.6940807, -0.72825027, -0.50501573, -0.45263404, -0.43214166, -0.3573036, -0.3117858, -0.30087224, -0.27876386, -0.2939955, -0.24637647, -0.29329166, -0.20170367, -0.18744116, -0.13385746, -0.10326571, -0.038434118, -0.44934696, -0.46013665, -0.6374528, -0.65583986, -0.6513758, -0.5472007, -0.5917715, -0.6604629, -1.0271294, -0.95843595, -0.77754754, -1.0537198, -0.9293879, -0.781726, -0.81583405, -0.7755322, -0.5666723, -0.5776388, -0.5864165, -0.50692797, -0.45525154, -0.31839645, -0.29689696, -0.36758757, -0.30784932, -0.24417093, -0.19983608, -0.25243863, -0.28141165, -0.33075443, -0.79949075, -0.5561259, -0.40771374, -0.8263272, -0.833796, -0.7996296, -1.4347906, -1.2612402, -0.57076836, -0.4193193, -0.48828092, -0.5177854, -0.39215237, -0.49562454, -0.62526023, -0.5217121, -0.4586391, -0.41124764, -0.3894191, -0.38753468, -0.35015973, -0.50671035, -0.40016574, -0.41939625, -0.2705154, -0.51321095, -0.4242141, -0.17081504, -0.6050903, -0.4386731, -1.1660688, -0.8094319, -0.82385373, -0.8968096, -0.57549405, -0.4709391, -0.03402125, 0.07567091, 0.13478133, 0.06890122, -0.035031136, -0.1027473, -0.06285479, 0.044194166, -0.055954896, -0.12909117, -0.28632376, -0.5449634, -0.5320582, -0.632603, -0.50239146, -0.4141783, -0.39317635, -0.32563275, -0.83822566, -0.94666225, -1.261206, -0.59672517, -1.1266518, -0.8065691, -0.63428, -0.5147929, -0.3227758, -0.048630476, 0.08009249, 0.15544876, 0.1595502, 0.16016239, 0.14835523, 0.18610942, 0.19851309, 0.24002415, 0.09907473, -0.028180396, -0.14279968, -0.32198876, -0.4698506, -0.51738995, -0.4151968, -0.4441956, -0.28620872, -0.55183905, -0.83563626, -0.38111448, -0.5846721, -0.56946623, -0.6933044, -0.4324575, -0.5235447, -0.4291348, -0.21288787, -0.15091418, -0.09989736, 0.066002436, 0.13766733, 0.1863317, 0.25253722, 0.20630471, 0.1924543, 0.17506139, 0.112563275, -0.026224755, -0.11252354, -0.2104535, -0.32718426, -0.44123653, -0.513507, -0.46937755, -0.3872857, -0.539851, -0.42186716, -0.43501616, -0.1955438, -0.3910732, -0.54238737, -0.5470603, -0.47109795, -0.28014043, -0.14845105, -0.17822585, -0.14250976, -0.021055512, 0.1263832, 0.22454369, 0.24895638, 0.15996614, 0.061324082, 0.0054929326, -0.09861744, -0.09531066, -0.15265225, -0.1958241, -0.32415795, -0.4277439, -0.49242994, -0.6466727, -0.5528327, -0.48659706, -0.12882301, -0.40678188, -0.27935654, -0.50123644, -0.566458, -0.3048594, -0.23396921, -0.18262394, -0.18283287, -0.14027818, -0.077464476, -0.07595205, 0.0394793, 0.17252807, 0.16649605, -0.025248753, -0.060373377, -0.13043496, -0.088287964, -0.094602644, -0.18173335, -0.19912186, -0.26512492, -0.37229097, -0.31223154, -0.37687725, -0.33880168, -0.6089798, -0.47664404, -0.24094057, -0.31391785, -0.47267237, -0.31616563, -0.045524806, -0.033756457, -0.009274302, 0.0024966593, 0.10560112, 0.08894302, 0.056308378, 0.07803187, -0.07048893, 0.03261968, -0.11356672, -0.013803676, 0.114811696, 0.07543588, -0.017217914, -0.070718825, -0.13596612, -0.1727392, -0.24124609, -0.33470535, -0.41119152, -0.54210013, -0.5464339, -0.6458357, -0.42990136, -0.5581236, -0.39119422, -0.1942828, 0.14606868, 0.16690348, 0.11539584, 0.18657835, 0.24398378, 0.16247527, 0.14834586, 8.127984e-05, -0.11344202, 0.06685247, 0.07068728, 0.18351558, 0.22068807, 0.13807288, 0.16994262, 0.086487845, 0.02980057, 0.062316827, -0.039636984, -0.36415678, -0.5500327, -0.4450424, -0.44092658, -0.6127132, -0.39632905, -0.5179291, -0.1507561, 0.049107157, 0.24483478, 0.22555414, 0.15613712, 0.25133193, 0.14177893, 0.08368098, -0.09760512, -0.2491175, 0.046553884, 0.26597443, 0.3467243, 0.38920957, 0.33333507, 0.2822489, 0.24917349, 0.24049538, 0.2672868, 0.25981337, -0.08330941, -0.55908203, -1.1063447, -0.60343474, -0.69843847, -0.90649664, -0.49501565, -0.5318413, -0.015116513, 0.34200993, 0.315378, 0.2657776, 0.1455433, 0.118355304, 0.046693403, 0.012599389, -0.18170767, -0.052022316, 0.22735712, 0.19268954, 0.31596774, 0.33356893, 0.26263368, 0.21632816, 0.22302523, 0.12762833, 0.24749964, 0.12300978, -0.2639512, -0.72402155, -0.9762941, -0.52542216, -0.674973, -1.5540805, -1.1108006, -0.3045214, 0.018480118, 0.2752157, 0.3007268, 0.15455163, 0.09071732, 0.09965674, 0.026285708, -0.05080598, -0.12386437, -0.0655372, 0.0683319, 0.051235314, 0.27653813, 0.22563402, 0.16651922, 0.071262315, 0.1186763, 0.09583477, 0.063749656, -0.14381452, -0.527975, -0.8593156, -0.8687078, -0.44955, -0.5375648, -1.5574988, -0.46347928, -0.037861872, 0.17318009, 0.3179869, 0.25426725, 0.07000743, 0.06626419, 0.023844287, -0.026238104, -0.0125428755, -0.16448745, -0.12735452, -0.11204489, 0.021713763, 0.25022268, 0.20292863, 0.08005986, -0.009846426, 0.07282583, -0.043377973, -0.17615324, -0.2398739, -0.6200917, -0.94799197, -0.9577617, -0.47077146, -0.5705217, -0.9094887, -1.0492661, -0.1118454, 0.03700101, 0.23679459, 0.10752734, 0.08795438, 0.15146828, 0.04857696, 0.020949334, -0.00034702622, -0.113060854, -0.20395957, -0.22153048, -0.058684453, 0.14405125, 0.102059536, 0.012495438, -0.04968005, -0.009642656, -0.16292065, -0.22125435, -0.3047629, -0.7194369, -0.81565654, -0.9043383, -0.53479415, 0.017225055, -0.86305356, -1.3339478, -0.83911276, -0.14944011, 0.020073136, -0.06812177, -0.004582751, 0.18230875, 0.09546728, 0.04155, 0.098045975, -0.03875456, -0.20249017, -0.2048173, -0.020944482, 0.033823475, 0.047605533, 0.022233807, -0.059648287, -0.06816372, -0.14480491, -0.20356965, -0.4263045, -0.7646324, -0.72814393, -0.9805184, -0.5945717, -0.15162417, -0.5573833, -1.1158544, -0.82792455, -0.3997166, -0.15561832, -0.14960462, -0.08683762, 0.020566657, 0.11815693, -0.033968624, -0.0973184, -0.083013594, -0.21216853, -0.14643437, -0.058650296, -0.002281763, -0.017997306, -0.060411807, -0.09131829, -0.021157766, -0.060013417, -0.26356262, -0.50182986, -0.88199043, -0.8491119, -0.88828486, -0.5689538, -0.37183723, -0.42376515, -0.5777257, -0.47536287, -0.58485764, -0.24935676, -0.26811907, -0.020164842, -0.1515183, -0.18765922, -0.19490789, -0.20847347, -0.30133888, -0.32134244, -0.20768431, -0.059860654, -0.10950927, -0.056424797, -0.11329262, -0.082305014, -0.03944828, -0.09319761, -0.2622201, -0.4254334, -0.55647993, -0.439412, -0.32928908, -0.051868875, -0.38867024, -0.50061154, -0.6407598, -0.26811704, -0.38253525, -0.12556244, -0.22184832, -0.17181972, -0.21876214, -0.50282234, -0.56828135, -0.50566655, -0.38237563, -0.2913217, -0.12754855, -0.07416301, -0.09674802, -0.08436602, -0.18593022, -0.13264205, -0.050424647, -0.21249193, -0.36247477, -0.30231687, -0.1697986, 0.0856429, -0.01636262, -0.2911041, -0.6662012, -0.16939743, -0.32124475, -0.51079607, -0.21592693, 0.07711194, -0.061582573, -0.1346922, -0.14417218, -0.22946794, -0.30650967, -0.29762834, -0.2616097, -0.17194015, -0.10306826, -0.17475466, -0.110339195, -0.14086244, -0.2644079, -0.19662924, -0.15614398, -0.2930111, -0.43518814, -0.31239757, -0.012659614, 0.16650055, 0.16145602, -0.16712634, -0.68137985, -0.161113, -0.26512003, -0.038120292, 0.012789376, 0.004977804, -0.19730838, -0.19353624, -0.19419457, -0.086405456, -0.019437984, -0.09472109, -0.06720157, -0.11694338, -0.15888304, -0.16548161, -0.11625066, -0.18145776, -0.32554308, -0.3020496, -0.18553574, -0.23445247, -0.2277709, -0.030529104, 0.12854522, 0.25133014, 0.1294641, -0.3266642, -0.5639876, -0.93230045, -0.44831184, 0.01980485, -0.11893637, -0.17040722, -0.2574471, -0.17393187, -0.12074933, -0.13504529, -0.16588098, -0.1836442, -0.18351804, -0.14849092, -0.20948334, -0.1506776, -0.115334734, -0.10639413, -0.12256887, -0.20884158, -0.09958584, -0.02834914, 0.024253149, 0.09921843, 0.19479208, 0.19803545, -0.15505731, -0.69804925, 0.1932472, -0.86295116, 0.069691926, 0.42108923, -0.29676822, -0.16259621, -0.102741934, -0.02733324, 0.098795556, 0.013855213, -0.13657543, -0.061694477, -0.10215111, -0.12172714, -0.10575991, -0.124002464, -0.07414976, -0.009702934, 0.041965295, 0.02993364, 0.18281536, 0.18477522, 0.17519131, 0.12677264, 0.103566416, 0.005854975, -0.22066085, -0.53415924, 0.1498116, 0.15277797, 0.3943188, 0.20821263, -0.14355774, 0.16794297, 0.27237394, 0.35317063, 0.34341612, 0.17338185, 0.16653484, 0.19913924, 0.12418466, 0.0674788, 0.093885876, 0.10309234, 0.20691222, 0.2836593, 0.21099326, 0.23157701, 0.40973637, 0.3980802, 0.19289932, 0.23185362, 0.2823802, -0.103509754, -0.4041739, -0.32802197, -0.022970563, 0.064708576, 0.14055675, 0.29721203, 0.08856459, 0.3171934, 0.53075993, 0.5864391, 0.71949065, 0.5926849, 0.5594199, 0.55550754, 0.4839378, 0.58976096, 0.47776246, 0.48258096, 0.4469772, 0.49999234, 0.43544355, 0.3602132, 0.48815596, 0.45278376, 0.17330305, 0.1383282, 0.1917684, -0.09492288, -0.29589516, -0.15523978, -0.014371787, -0.03586035, 0.14417501, -0.13229266, 0.14683363, 0.4414898, 0.22197615, 0.50117964, 0.56624585, 0.6435137, 0.63537407, 0.33898526, 0.37509367, 0.50230604, 0.4408119, 0.3536256, 0.32073703, 0.48117968, 0.40336415, 0.31522343, 0.44117644, 0.29048988, 0.056872398, 0.06484062, 0.08195645, -0.0882921, -0.32636136, 0.004936095},
};

#endif
